svm_type c_svc
kernel_type rbf
gamma 0.0588235
nr_class 3
total_sv 6881
rho -0.602269 0.313129 0.789938
label 1 2 3
nr_sv 2750 1183 2948
SV
1 0 12:1 14:6 16:3 17:7 
1 1 12:6 14:4 16:2 17:1 
0 1 10:1 12:1 14:1 16:1 
1 1 8:1 10:1 12:3 14:5 17:1 
1 1 1:0.13333333 2:1 3:1 12:5 14:5 17:3 
1 1 12:5 14:3 17:7 
0 1 4:1 12:1 14:3 17:9 
0 1 12:2 14:2 16:2 17:3 
0 1 12:2 14:1 16:2 
0 1 1:0.42857143 2:1 10:2 12:1 14:3 17:1 
1 1 8:1 10:1 12:3 14:5 16:1 17:4 
0.601718220256276 1 3:1 10:3 12:3 14:2 17:1 
1 1 12:2 14:2 16:1 
0 1 12:2 14:7 16:1 17:1 
0 1 12:1 14:4 16:1 
0 1 3:1 12:2 14:2 16:1 
0 1 12:3 14:3 16:1 17:3 
1 1 8:1 12:1 14:4 16:1 17:1 
0 1 1:0.15384615 2:1 10:1 12:4 14:2 16:1 17:4 
1 1 12:4 14:3 16:1 
0 1 4:1 12:2 14:10 
0.9399674459308617 1 12:4 14:8 16:2 
0 1 1:0.16666667 2:1 3:1 12:3 14:2 
1 1 12:3 14:3 16:1 17:3 
0 1 8:1 12:2 14:3 16:2 
0 1 1:0.11111111 2:1 12:2 14:6 
0 1 12:1 14:3 16:3 
0 1 1:0.1 2:1 4:1 12:3 14:1 17:4 
0 1 14:3 17:1 
0.5072064143970066 1 1:0.14285714 2:1 3:2 12:2 14:1 
0 1 1:0.16666667 2:1 10:1 12:2 14:2 17:1 
1 1 12:5 14:8 16:4 17:1 
0 1 12:1 14:1 16:1 
0 1 1:0.083333333 2:1 3:1 12:1 14:8 
0 1 1:0.2 2:1 4:1 12:1 14:4 16:2 
0 1 12:1 14:3 17:1 
1 1 8:1 12:4 14:7 17:6 
0 1 1:0.2 2:1 3:1 12:3 14:3 17:2 
0 1 4:1 12:2 14:3 17:4 
0 1 12:2 14:6 16:3 
1 1 8:1 12:3 14:5 16:1 17:1 
0.05651569281270653 0 10:1 14:3 16:5 17:4 
0 1 3:1 12:2 14:3 
1 1 12:2 14:5 16:1 
0 1 1:0.75 2:1 12:4 14:4 17:4 
1 1 9:1 10:1 12:4 14:4 16:1 
1 1 3:1 8:1 12:2 14:3 17:4 
0 1 10:1 14:2 16:1 
1 1 3:1 12:1 14:2 17:4 
0 1 1:0.125 2:1 12:1 14:4 16:2 
0.0669016601654349 1 1:0.083333333 2:1 12:4 14:1 16:1 17:4 
0 1 1:0.15789474 2:1 3:1 12:4 14:9 16:2 
1 1 8:1 12:3 14:1 16:3 17:1 
0 1 12:3 14:4 16:1 17:3 
0 1 12:2 14:1 
0 1 3:1 12:4 14:3 16:1 17:3 
0 1 12:4 14:5 16:1 17:1 
0 1 12:3 14:3 16:2 17:1 
1 1 1:0.1 2:1 12:3 14:4 16:2 
0 1 3:1 12:1 14:2 16:1 
0 1 12:9 14:3 17:2 
1 1 1:0.055555556 2:1 12:5 14:8 16:2 17:3 
0 1 3:2 14:4 16:1 
0 1 3:1 10:1 14:1 16:2 
0 1 12:3 14:4 17:1 
0 1 3:1 12:3 14:4 16:1 
1 1 12:4 14:4 16:1 
0 1 1:0.1 2:1 12:1 14:5 16:1 17:1 
1 1 12:1 14:3 16:1 
0 1 12:2 14:4 17:3 
0 1 12:3 14:4 16:1 17:3 
1 1 8:1 12:5 14:6 17:1 
0 1 1:0.16666667 2:1 10:3 12:1 14:2 16:1 
1 1 12:3 14:10 16:3 17:3 
1 1 12:4 14:6 16:1 
0 1 12:1 14:2 16:1 
1 1 1:0.083333333 2:1 14:8 17:3 
0 1 1:0.16666667 2:1 3:1 12:3 14:1 16:1 
1 0 1:0.083333333 2:1 8:1 10:1 12:4 14:2 16:1 17:2 
1 1 12:2 14:1 16:4 
1 1 12:3 14:4 16:1 17:4 
0 1 1:0.16666667 2:1 10:1 12:1 14:3 16:1 
1 1 1:0.055555556 2:1 8:1 12:4 14:7 16:2 17:5 
1 1 14:4 
0 1 10:1 12:2 14:1 16:1 17:1 
0.6017124710659124 1 4:1 8:1 10:1 12:4 14:10 16:1 17:11 
1 1 8:1 12:4 14:7 16:2 17:8 
0 1 14:3 16:2 17:6 
1 1 3:1 12:2 14:6 16:1 17:3 
1 1 3:1 8:1 10:1 12:2 14:4 17:4 
0 1 1:0.11111111 2:1 12:1 14:5 16:1 
0 1 12:3 14:4 16:1 17:2 
0 1 12:3 14:1 16:1 17:3 
0 1 12:1 14:10 16:2 17:4 
0 1 12:4 14:4 17:4 
0 1 12:2 14:5 16:1 17:1 
1 1 12:5 14:5 17:2 
0 1 12:1 14:2 16:2 
0 1 10:1 14:3 
0 1 1:0.125 2:1 3:1 12:1 14:4 
0 1 3:2 14:4 16:1 17:1 
0 1 12:3 14:2 
0.7262853738367707 1 12:5 14:1 
1 1 12:5 14:4 16:1 
0 1 1:0.076923077 2:1 10:1 12:4 14:1 16:2 17:3 
1 1 12:1 14:3 16:1 
1 1 8:1 12:8 14:4 16:1 17:5 
0 1 12:2 14:2 16:2 
1 1 8:1 12:1 14:6 16:1 17:4 
1 1 3:1 14:5 17:3 
1 1 12:3 14:1 16:1 17:1 
1 1 8:1 12:1 14:6 16:2 
0 1 12:3 14:3 16:1 17:2 
0 1 3:1 12:1 14:5 17:2 
1 1 12:3 14:4 16:1 17:4 
0.6049163856721412 1 3:1 12:2 14:6 16:2 17:1 
1 1 8:1 12:2 14:2 16:3 17:4 
0 1 12:1 14:5 16:2 17:1 
0 1 12:2 14:2 17:3 
0.5295483068163058 0 3:1 10:1 12:2 14:3 16:5 17:4 
0 1 12:3 14:4 16:1 
1 1 12:3 14:3 16:3 17:6 
1 1 8:1 12:2 14:6 
0 1 10:1 12:3 14:4 
0 1 14:7 16:4 17:4 
0.311292069427885 1 12:2 
0 1 3:1 10:1 12:1 14:3 16:2 
1 1 3:1 8:1 12:3 14:1 16:1 17:1 
0 1 12:2 14:5 16:2 17:4 
0 1 12:2 14:2 16:2 
0.3485549976230597 1 10:1 14:9 16:4 
1 1 8:1 12:4 14:2 17:2 
1 1 1:0.076923077 2:1 12:5 14:4 16:2 17:1 
1 1 1:0.4 2:1 10:3 12:2 14:1 17:1 
1 1 8:1 12:3 14:4 17:1 
1 1 9:1 14:1 16:1 
0 1 14:4 16:2 
0 1 10:1 12:2 14:4 
0 1 12:3 14:6 16:1 
1 1 12:5 14:2 16:1 
0 1 12:1 14:4 16:3 17:2 
1 1 9:1 12:3 14:5 16:1 17:4 
1 1 12:3 14:4 16:3 17:5 
0 1 12:2 14:2 16:2 
0 1 10:1 12:7 14:4 16:1 17:3 
0 1 10:1 12:2 14:4 16:1 
0 1 3:1 12:2 14:3 16:1 
0 1 12:3 14:4 16:2 17:3 
0 1 12:3 14:2 16:1 17:1 
0 1 10:1 12:5 14:3 
1 1 8:1 12:4 14:3 16:1 17:2 
1 1 12:4 14:3 16:1 17:3 
0 1 12:2 14:3 16:1 
1 1 12:5 14:4 16:1 17:1 
0 1 1:0.14285714 2:1 3:1 10:1 12:1 14:3 16:1 
1 1 12:5 14:2 16:2 17:2 
0 1 12:3 14:4 16:1 17:1 
0 1 12:3 14:3 16:2 17:3 
0 1 12:2 14:1 16:2 17:2 
1 1 12:2 14:3 16:2 17:1 
0 1 12:3 14:2 16:1 
0 1 14:5 16:1 
0 1 4:1 12:1 14:5 
0 0.01432833736683565 3:1 4:1 12:1 14:2 16:1 
0 1 12:4 14:3 16:2 17:3 
0 1 10:1 12:3 14:3 16:1 
0.1125186316442156 1 1:0.11111111 2:1 12:2 14:4 17:2 
0 1 3:1 14:4 17:3 
0 1 12:2 14:6 16:1 17:1 
0 1 10:1 12:2 14:5 
0 1 10:1 12:2 14:3 16:1 
0 1 3:1 14:1 15:1 16:2 
0 1 12:2 14:2 16:2 
0.2826638018932969 0 10:1 12:2 14:5 16:4 17:3 
0 1 10:3 12:1 14:8 16:1 
0 1 12:2 14:2 16:3 17:1 
0 1 3:1 12:2 14:5 16:3 17:3 
1 0 8:2 10:2 12:4 14:3 16:1 17:3 
0 1 1:0.2 2:1 12:2 14:7 16:1 
0 1 12:2 14:1 
0 1 10:1 12:2 14:7 
0 1 12:3 14:5 16:2 
0 1 12:2 14:4 17:4 
0.9543168617322332 1 12:1 14:6 16:1 17:1 
1 1 12:3 14:3 
0 1 12:3 14:4 16:1 17:3 
1 1 12:3 14:6 
0 1 14:3 16:2 
0 1 12:2 14:5 16:2 17:4 
1 1 12:3 14:4 16:1 17:6 
0 1 12:2 14:4 16:1 
1 1 12:4 14:1 16:1 17:1 
1 1 12:3 14:3 16:1 17:3 
1 1 8:1 12:4 14:4 16:2 17:2 
1 0 1:0.11111111 2:1 8:2 12:7 14:5 16:2 17:2 
0.7554480024186748 1 12:1 14:2 16:3 17:6 
0.9211731286427753 1 12:3 14:7 16:1 
1 1 12:2 14:2 16:1 17:1 
1 1 12:4 14:1 16:1 17:2 
1 0 8:1 10:1 12:2 14:3 16:3 17:6 
0 1 4:1 12:1 14:4 16:2 
0 1 3:1 14:5 16:1 
0.3331145562272442 1 12:4 14:5 17:6 
0 1 12:2 14:3 17:3 
0 1 12:4 14:1 
0 1 12:3 14:3 16:1 17:1 
1 1 12:4 14:2 17:1 
1 1 8:1 12:2 14:3 16:2 17:1 
1 1 12:1 14:3 16:2 17:1 
0 1 10:1 12:4 14:2 17:2 
0 1 12:7 14:1 17:1 
0 1 10:1 12:2 14:6 16:1 
0.5560420714517658 1 12:7 14:2 16:2 17:7 
0 1 14:4 16:1 
1 1 12:1 14:7 16:1 17:3 
1 1 3:1 12:2 14:6 
0 1 14:4 16:1 
0 1 3:1 12:1 14:4 
1 0 8:1 10:1 12:1 14:8 16:2 17:6 
1 1 1:0.0625 2:1 12:3 14:3 16:1 17:5 
0 1 1:0.1 2:1 3:1 10:1 12:2 14:4 16:2 
1 1 1:0.125 2:1 12:5 14:2 
1 0.84601835712253 8:2 12:1 14:4 16:2 17:10 
0.7319488163897522 1 12:3 14:7 16:2 17:1 
0 1 12:4 14:4 16:1 17:3 
0 1 4:1 12:1 14:5 
0 0.9960295881423841 1:0.125 2:1 10:3 12:2 14:4 16:1 
0 1 12:1 14:5 16:1 
1 1 12:4 14:2 16:2 
1 1 12:1 14:4 
0 1 1:0.25 2:1 10:1 12:2 14:2 16:2 
0 1 14:2 16:1 
0.9754690173115766 0.0895835313768667 1:0.15384615 2:1 6:1 8:1 12:3 14:4 16:1 17:1 
1 1 3:1 12:4 14:4 16:1 17:4 
0 1 3:1 14:3 16:3 
0 1 12:4 14:4 16:1 17:3 
0 1 12:3 14:4 16:1 17:1 
0 1 1:0.071428571 2:1 3:1 12:2 14:2 17:7 
0 1 1:0.11111111 2:1 10:1 12:3 14:2 16:1 17:1 
0 1 10:1 12:2 14:4 16:1 
0 1 3:1 10:2 12:4 14:2 
0 1 12:3 14:5 16:2 
0 1 12:1 16:1 17:1 
1 1 9:1 12:3 14:2 16:2 
0 1 12:1 14:1 16:1 
0 1 3:2 12:5 14:2 16:1 
0 1 12:5 14:7 16:2 
0 1 12:2 14:4 16:1 
0 1 10:1 12:2 14:6 16:1 17:3 
1 1 3:1 8:1 12:2 14:3 17:1 
1 1 12:3 14:2 16:2 17:4 
0 1 12:3 14:3 16:1 17:1 
0 1 3:1 12:2 14:2 16:2 17:3 
0 1 10:1 12:3 14:2 17:3 
0 1 12:3 14:5 16:1 
1 0 1:0.05 2:1 6:1 8:2 12:8 14:4 16:1 17:2 
1 1 8:1 12:1 14:3 16:2 17:1 
0 1 1:0.28571429 2:1 6:1 8:1 14:4 
0 1 1:0.11111111 2:1 12:1 14:7 16:1 
0 1 12:2 14:3 16:1 
1 1 8:1 10:1 12:4 14:4 17:1 
1 1 12:3 14:7 16:2 17:2 
0.4693662408371262 1 8:1 10:3 12:1 14:7 
0 1 3:1 4:1 12:1 14:5 
0 1 12:1 14:5 16:4 17:1 
0 1 1:0.083333333 2:1 3:1 12:3 14:4 16:2 
0.7452903769432379 0.8114037123287103 10:3 12:2 14:1 17:3 
0 1 12:2 14:3 16:1 17:1 
0 1 12:2 14:4 16:1 
1 0 10:1 12:5 14:3 16:3 
0.05348750326548875 1 14:3 16:2 
0 1 12:3 14:2 17:1 
0.7361977431432722 1 12:4 14:2 16:1 
0 1 10:1 12:1 14:8 16:2 17:1 
0 1 1:0.16666667 2:1 3:2 12:3 14:2 16:2 17:1 
1 0 1:0.090909091 2:1 4:1 8:1 12:5 14:1 16:1 17:2 
1 1 12:2 14:5 16:1 
1 1 12:5 14:2 17:1 
0 1 3:2 12:1 14:1 
0 1 12:2 14:2 
0 1 10:1 12:2 14:1 
0 1 12:1 14:3 
1 1 12:2 14:4 16:1 17:3 
0.5364658981445444 1 12:2 14:4 16:2 
1 1 3:2 8:1 12:6 14:6 
0 1 3:1 12:1 14:3 
0 1 12:3 14:7 16:1 
1 1 12:2 14:6 17:3 
1 1 8:2 12:1 14:6 16:1 17:1 
0 1 12:2 14:3 16:1 
0 1 12:1 14:4 16:1 
0 1 1:0.11111111 2:1 3:2 12:4 14:1 16:1 
0 1 14:1 16:1 17:1 
0 1 4:1 12:1 14:4 16:3 
0 1 12:3 14:5 16:2 
1 0 8:1 10:1 12:2 14:2 16:3 17:3 
0 1 12:2 14:7 16:2 17:7 
1 1 10:2 12:1 14:1 
0 1 3:1 12:1 14:5 16:1 
0 1 1:0.22222222 2:1 12:3 14:3 16:2 
0 1 1:0.071428571 2:1 10:1 12:4 14:5 16:2 
0 1 1:0.125 2:1 12:2 14:3 17:3 
0 1 4:1 12:1 14:7 
0 1 12:1 14:2 
1 1 12:3 14:5 16:3 17:4 
1 1 12:5 14:2 16:3 17:5 
1 1 1:0.1 2:1 12:2 14:2 16:2 17:2 
0.7530893010213909 1 12:2 14:2 16:2 17:8 
0.2304984265997202 0 1:0.071428571 2:1 3:2 8:1 10:3 12:3 14:3 16:1 17:4 
0 1 10:1 12:2 14:8 17:3 
1 1 9:1 12:1 14:1 16:1 17:1 
0 1 6:1 12:1 14:1 16:1 
1 1 12:1 14:3 16:1 
0.7995650055405952 1 3:1 12:3 14:4 16:2 
1 1 12:2 
1 1 12:4 14:3 
1 1 12:5 14:3 16:1 17:3 
0.8507513161815864 1 3:1 12:4 14:3 16:1 17:1 
0.3521781189794888 1 4:1 12:3 14:1 16:1 17:6 
0 1 3:1 12:1 14:4 16:2 
0 1 10:1 12:1 14:1 17:1 
0 1 1:0.2 2:1 12:2 14:7 16:1 
1 0 4:1 8:1 12:3 14:2 17:2 
1 1 12:3 14:3 
0.9518568852401309 1 3:1 12:3 14:5 
0 1 12:3 14:6 16:1 
0.3292439505014602 1 3:3 12:2 14:4 
1 0 4:1 8:1 12:4 14:5 17:1 
1 0 8:1 12:5 14:6 16:4 17:1 
0 1 3:1 14:4 16:1 
0.2206022373698187 1 1:0.42857143 2:1 14:3 16:3 
0 1 3:1 12:2 14:4 
0.6198371246897537 1 12:6 14:1 16:1 
0 1 10:1 12:1 14:5 16:1 
0 1 10:1 12:2 14:5 
0 1 12:3 14:4 16:1 17:2 
0.144501858382576 1 1:0.16666667 2:1 12:2 14:1 16:1 17:1 
1 0 8:1 10:1 12:4 14:4 16:3 17:1 
1 1 8:2 12:2 14:5 16:2 17:4 
1 1 1:0.083333333 2:1 5:1 10:1 12:3 14:3 17:3 
0 1 12:1 14:2 16:2 17:6 
1 1 3:1 12:3 14:7 17:1 
0 1 10:2 12:3 14:8 17:1 
1 1 8:1 12:1 14:3 16:1 17:3 
1 1 8:1 12:7 14:4 16:1 17:3 
0 1 10:1 12:1 14:1 16:1 17:4 
0 1 4:1 12:1 14:5 17:1 
0 1 1:0.14285714 2:1 10:1 12:1 14:3 17:1 
0 1 10:1 12:2 14:2 17:1 
0 1 12:2 14:5 17:1 
1 1 8:1 12:5 14:4 16:1 17:2 
1 1 9:3 14:4 16:1 17:1 
0 1 12:3 14:3 16:2 
0 1 10:1 12:2 14:5 16:1 
0 1 3:2 12:2 14:2 16:1 
1 1 8:1 10:1 12:4 14:4 17:2 
0 1 12:3 14:4 16:1 
1 1 1:0.18181818 2:1 8:1 12:3 14:4 16:1 17:2 
0 1 1:0.16666667 2:1 10:1 12:1 14:2 16:1 
0 1 10:1 12:1 14:2 16:1 
1 1 8:1 12:6 14:3 17:4 
0 1 10:1 12:3 14:4 16:1 17:3 
0 1 3:1 14:3 16:2 17:4 
1 0 8:1 10:1 12:5 14:4 16:1 17:1 
0.1533340631606294 1 3:1 12:3 14:4 17:3 
0.2088285730853477 1 3:2 12:2 14:2 17:6 
-0 1 12:4 14:4 16:1 17:4 
1 1 12:2 14:2 16:1 
0 1 12:2 14:2 
0 1 10:1 12:2 14:3 16:1 17:2 
1 1 1:0.125 2:1 3:1 8:1 12:3 14:2 16:1 17:1 
0.7574671129163146 1 12:1 14:5 16:1 
0.2656355314581764 1 3:1 14:8 16:2 
1 1 12:4 14:6 17:3 
0 1 3:3 12:2 14:3 
0 0.9426139807776526 6:1 12:3 14:4 16:2 17:1 
1 1 8:1 12:3 14:3 17:3 
0 1 4:1 12:4 16:1 
1 1 8:1 12:8 14:3 17:1 
0 1 12:3 14:4 16:1 17:1 
0 0.8297342773732462 10:1 12:1 14:3 16:4 
1 1 12:4 14:3 
1 1 12:2 14:3 16:1 17:4 
1 1 1:0.071428571 2:1 8:1 14:6 16:3 17:4 
1 0 4:1 8:1 14:3 16:2 17:4 
1 1 8:1 12:2 14:4 16:2 17:4 
0 1 4:1 14:2 
1 0 8:1 12:3 14:3 16:3 17:3 
1 1 12:1 14:3 16:2 17:3 
0 1 14:2 16:1 
0.86703779735949 1 1:0.090909091 2:1 3:2 14:7 
1 1 12:2 14:5 16:1 
1 1 8:1 12:7 14:5 16:2 17:2 
0 1 3:1 12:2 14:2 16:1 
1 1 9:1 12:3 14:6 16:1 17:3 
1 1 12:3 14:3 
0.3739948047295484 1 1:0.047619048 2:1 9:1 12:1 14:6 16:3 17:6 
1 1 8:1 12:1 14:5 17:1 
0 1 10:1 12:3 13:1 14:6 16:1 
0 1 4:1 12:6 14:4 16:1 
1 1 12:3 14:2 16:1 17:4 
0.7879350032870666 1 3:3 12:1 14:3 16:1 17:1 
0 1 12:3 14:2 
0 1 12:1 14:3 16:2 
0 1 1:0.42857143 2:1 12:4 14:6 16:3 17:1 
0.1672413822503437 1 12:2 14:2 16:2 
0.6243204480612652 1 11:2 12:2 14:3 
1 1 12:6 14:2 16:1 17:2 
0 1 12:2 14:6 16:1 17:1 
0 1 12:5 14:5 16:1 17:4 
0 1 12:3 14:8 16:2 
0 1 12:2 14:8 16:1 17:3 
0 1 12:3 14:1 
1 1 11:2 12:2 14:3 16:1 
0 1 1:0.125 2:1 10:1 12:1 14:5 16:1 
0 0.8488646768899238 10:3 12:5 14:4 16:1 17:3 
1 1 8:1 12:2 14:4 16:3 17:2 
0 1 12:5 14:5 16:2 17:1 
0 1 10:1 12:4 14:1 16:1 17:1 
1 1 3:1 12:3 14:5 16:2 17:6 
0 1 10:1 12:2 14:1 
1 1 12:5 14:2 17:3 
1 1 3:1 8:1 12:3 14:3 16:1 17:6 
0 1 3:1 12:2 14:3 16:1 
0 1 3:1 12:1 14:4 
0 1 3:1 12:1 14:1 
1 1 3:1 9:1 12:3 14:1 16:1 
0 1 1:0.14285714 2:1 12:2 14:7 16:1 17:1 
0 1 10:1 12:2 14:1 16:1 
1 1 12:6 14:3 17:3 
0 1 3:2 12:2 14:6 16:2 
0 1 4:1 12:1 14:2 17:4 
0 1 1:0.16666667 2:1 12:4 
0.04904508857629936 1 12:1 14:2 16:2 
0 1 4:1 12:1 14:5 16:2 
0.3718458304946408 0 3:1 10:1 12:1 14:2 16:2 17:1 
0 1 12:1 14:5 16:1 17:1 
1 1 12:2 14:2 16:2 17:4 
1 0 8:1 12:4 14:4 16:3 17:2 
1 1 12:2 14:5 16:1 
1 1 3:1 12:3 14:5 16:2 17:1 
0 1 12:1 14:1 
1 1 1:0.11111111 2:1 8:1 12:3 14:2 16:2 17:1 
0 1 12:5 14:5 16:1 17:2 
0 1 12:1 14:4 16:2 17:1 
0 1 12:2 14:6 16:1 17:3 
1 1 12:5 14:7 17:1 
0 1 12:1 14:2 17:1 
0 1 12:1 14:2 
1 0 8:1 12:3 14:2 16:3 17:2 
0 1 12:2 14:4 16:2 17:1 
0 1 12:2 14:4 16:1 
1 1 9:1 12:2 14:6 16:2 17:3 
0 1 12:1 14:4 16:1 
0 1 10:1 12:1 14:8 
0 1 1:0.1 2:1 3:1 12:2 14:3 16:1 
0 1 6:1 12:2 14:2 
0 1 6:1 12:4 14:2 17:1 
1 1 3:1 12:2 14:4 16:1 17:1 
1 1 8:1 12:5 14:3 16:1 17:2 
0 1 3:1 12:2 14:4 17:1 
0 1 12:2 14:3 16:1 17:1 
0 1 1:0.058823529 2:1 4:1 12:4 14:5 
0 0.8895789944401927 1:0.14285714 2:1 4:1 12:1 14:2 16:1 
1 1 3:1 12:2 14:4 16:1 17:1 
1 1 14:9 16:1 
0 1 3:3 12:4 14:2 16:1 
0 1 3:2 12:4 14:3 16:2 17:3 
0 1 12:3 14:4 17:1 
0 1 6:1 12:1 14:2 
0 1 12:2 14:1 16:2 
1 1 8:1 12:6 14:3 17:1 
1 1 8:1 10:1 12:3 14:10 17:3 
0 1 3:1 12:2 14:3 16:1 
1 1 12:6 14:3 17:1 
0 1 12:1 14:5 16:2 17:2 
1 1 3:2 12:1 14:2 16:2 17:1 
0 1 12:1 14:8 
0 1 12:1 14:4 16:2 17:4 
0 1 12:2 14:4 16:1 
1 1 12:4 14:2 16:1 
1 1 12:4 14:3 16:1 17:1 
0 1 12:3 14:4 17:3 
0 1 14:4 16:1 
0 1 14:4 16:1 17:4 
0 1 12:2 14:1 16:1 
0.1164098616751045 1 12:3 14:5 17:4 
1 1 12:3 14:4 16:2 17:5 
1 1 8:1 12:5 14:3 16:1 17:1 
1 1 8:1 12:2 14:3 17:8 
1 1 8:1 12:4 14:5 17:1 
0.540514744887662 1 3:2 12:1 14:3 16:1 17:5 
1 0 8:1 12:1 14:4 16:4 17:3 
0 1 1:0.125 2:1 12:1 14:3 16:1 17:3 
0 1 1:0.071428571 2:1 14:5 16:2 17:6 
1 1 12:3 14:3 
1 1 1:0.0625 2:1 12:1 14:5 16:2 17:8 
1 1 1:0.2 2:1 3:1 12:2 14:5 
1 1 8:1 12:3 14:5 16:2 17:3 
0 1 12:3 14:3 16:2 
0 1 12:2 14:3 
1 0 8:1 10:1 12:2 14:5 16:2 17:4 
1 1 1:0.2 2:1 3:1 12:1 14:2 17:1 
0 1 6:1 12:2 14:2 16:1 17:4 
0 1 12:4 14:6 16:2 
0 1 12:3 14:5 16:1 
0 1 3:1 12:1 14:4 16:1 17:3 
0 1 10:1 12:3 14:6 16:1 17:1 
0 1 1:0.2 2:1 10:1 12:1 14:7 16:2 17:3 
0 1 12:2 14:4 16:1 
0 1 3:1 12:2 14:2 17:3 
1 1 14:4 17:3 
1 1 8:1 12:4 14:2 16:2 17:2 
0 1 10:1 12:1 14:2 16:1 
1 1 12:4 17:1 
0 1 1:0.1 2:1 8:1 10:1 12:1 14:3 
0 1 12:1 14:1 16:1 
0.4983515655992751 0 1:0.055555556 2:1 3:1 12:2 14:5 16:4 17:3 
1 1 9:1 12:5 14:3 16:4 17:1 
1 1 1:0.076923077 2:1 3:1 12:3 14:5 16:2 17:1 
0 1 12:3 14:5 16:1 17:4 
1 1 1:0.2 2:1 12:5 14:3 16:1 
0 1 12:1 14:7 16:2 
1 0 8:1 10:1 12:5 14:3 16:1 17:2 
1 1 3:1 8:1 12:3 14:3 16:1 17:1 
0 1 10:1 12:3 14:2 
0.8708024291027433 1 3:1 14:2 
0 1 3:1 12:4 14:2 16:1 
0 1 1:0.1 2:1 10:1 12:2 14:5 16:1 
1 1 8:1 12:2 14:3 16:2 17:1 
0 1 3:1 12:1 14:2 
1 1 12:4 14:3 16:3 17:1 
1 1 5:1 12:4 14:6 16:2 17:3 
0 1 1:0.090909091 2:1 10:1 12:3 14:2 16:2 
0.01139669485421877 1 12:2 14:5 16:4 17:3 
1 1 12:3 14:2 16:4 
0 1 12:2 14:1 16:1 
0 1 12:3 14:2 16:2 17:1 
1 1 1:0.090909091 2:1 12:3 14:5 16:1 17:1 
0 1 10:1 12:1 14:5 
0 1 12:4 13:1 14:4 
0.1615875198568368 1 1:0.33333333 2:1 12:3 14:2 17:1 
0.3088050558526567 1 12:3 14:4 
0 1 10:1 12:2 14:4 16:2 
0 1 1:0.22222222 2:1 12:3 14:2 16:2 
1 1 8:1 12:1 14:3 16:3 17:2 
1 1 8:1 12:1 14:4 17:1 
1 1 8:1 10:1 12:4 14:6 16:1 17:6 
0.1889954910129833 1 12:1 14:2 16:1 
0 1 4:1 14:2 16:2 
0.315546635081847 1 12:2 14:4 16:1 
1 1 8:1 12:2 14:1 16:1 17:3 
0 1 10:1 12:2 14:6 16:1 
0 1 1:0.076923077 2:1 10:1 12:3 14:4 17:1 
1 1 8:1 12:5 14:1 16:1 17:5 
0 1 1:0.11111111 2:1 3:1 12:3 14:2 17:1 
1 1 8:1 12:4 14:1 17:1 
1 1 12:1 14:5 16:1 
1 1 12:1 14:3 16:1 
1 0 8:1 10:2 12:5 14:3 17:2 
0 1 1:0.066666667 2:1 12:4 14:7 16:2 17:2 
0.9873920458316733 1 12:1 14:4 16:1 17:3 
1 1 12:2 14:5 17:8 
0 1 12:1 14:2 16:1 17:1 
0 1 10:1 12:2 14:3 16:1 
0 1 14:7 16:1 
0 1 12:2 14:1 16:1 17:3 
0.9913121628090121 1 12:1 14:2 
0 1 10:1 12:4 14:3 
0.8837926785637062 1 12:3 14:5 16:2 17:2 
0.993314804229 1 10:1 12:2 14:5 
0 1 10:1 12:6 14:3 
1 1 9:1 10:1 14:4 16:2 
0 1 12:4 14:4 16:1 17:3 
1 1 3:1 8:1 12:1 14:2 17:9 
0 1 3:1 12:4 14:2 16:2 17:3 
1 0 8:1 12:3 14:4 16:4 17:3 
0 1 12:3 14:4 16:1 17:1 
1 1 12:4 14:4 16:2 17:7 
0 1 12:1 14:2 16:1 17:1 
0 1 3:2 12:3 14:3 16:1 
0.01498667281139403 1 12:2 14:4 17:3 
0.5862029679297007 0 10:2 12:2 14:2 16:1 
1 1 14:3 16:2 17:1 
1 1 3:1 8:1 12:5 14:4 16:1 17:5 
1 1 8:1 12:1 14:1 
0 1 12:3 14:3 16:2 17:3 
0 1 10:1 12:1 14:2 16:2 
0 1 3:1 10:1 14:1 16:2 
0 1 12:2 14:7 16:1 17:3 
0 1 4:1 12:5 14:1 16:1 
1 1 8:1 10:1 12:1 14:1 17:1 
1 1 3:1 12:3 14:7 16:2 17:9 
1 1 8:1 12:1 14:3 16:1 17:1 
0 1 12:3 14:4 16:1 
1 1 12:5 14:7 16:1 
1 1 1:0.090909091 2:1 12:5 14:4 17:2 
1 1 12:3 14:3 
0 1 1:0.071428571 2:1 3:2 6:1 12:1 14:5 16:2 17:2 
0 1 1:0.090909091 2:1 12:1 14:3 16:1 17:6 
1 1 12:4 14:3 16:2 
0 1 14:2 16:1 17:1 
0 1 14:3 16:1 17:1 
0 0.4805812587380919 4:1 12:3 14:4 16:6 
1 1 8:2 9:3 12:2 14:5 16:2 17:2 
1 1 1:0.2 2:1 10:1 12:4 14:5 
0.731526868409022 1 12:2 14:3 16:2 17:2 
0.512020278565116 1 12:6 14:6 16:2 17:3 
0 0.9895236475515066 3:1 4:1 12:1 14:2 16:1 
1 1 8:1 10:1 12:2 14:2 17:1 
1 1 12:2 14:2 16:1 
1 1 8:2 12:5 14:4 16:1 17:4 
0 0.5801824035328206 10:1 12:3 14:4 16:1 17:2 
1 1 12:3 14:6 16:4 17:6 
0 1 1:0.22222222 2:1 12:1 14:3 17:3 
0 1 4:1 12:2 17:1 
1 1 12:2 14:6 16:2 
1 1 1:0.11111111 2:1 12:2 14:3 16:2 17:1 
0 1 14:4 16:3 17:3 
1 0 8:2 10:1 12:5 14:6 16:2 17:2 
0.4891477519049225 1 3:1 12:1 14:7 
1 1 8:1 12:2 14:2 17:1 
1 1 12:6 14:2 16:1 17:6 
1 1 8:1 12:4 14:3 16:2 17:1 
0 1 10:1 12:2 14:7 17:6 
0 1 12:2 14:4 16:1 17:1 
0 1 4:1 14:1 
1 1 12:4 14:2 16:1 
1 1 14:5 17:2 
0 1 12:1 13:1 14:2 16:3 17:1 
0 1 10:1 12:2 14:3 17:1 
1 1 8:1 9:1 12:3 14:5 16:1 17:3 
0 1 3:1 12:1 14:2 16:1 
0 1 12:1 14:5 17:1 
1 1 12:5 14:7 17:2 
0.1623953925572426 1 10:3 14:1 16:1 
0 1 3:1 12:2 14:5 16:2 17:1 
1 0 12:3 14:3 16:4 17:1 
0 1 12:3 14:2 16:1 17:1 
1 1 1:0.18181818 2:1 8:1 12:2 14:6 17:1 
1 1 9:1 12:2 14:2 17:1 
0 1 3:1 10:1 12:3 14:4 17:4 
0 1 4:1 12:1 14:5 16:1 
0 1 1:0.14285714 2:1 12:2 14:2 16:1 17:1 
0.836982507922177 1 12:2 14:8 16:1 
0 1 12:2 14:4 16:1 17:1 
1 1 1:0.11111111 2:1 12:1 14:5 16:2 17:1 
1 1 8:2 12:3 14:6 17:4 
0 1 14:6 
0 1 10:1 12:3 16:1 
0 1 10:1 12:1 14:5 16:1 17:2 
1 1 3:2 8:1 12:1 14:4 16:2 17:2 
1 1 1:0.071428571 2:1 3:1 8:1 12:4 14:5 17:1 
1 1 12:4 14:6 17:1 
0 1 10:1 12:4 14:2 16:1 17:3 
0 1 10:1 12:3 14:2 16:1 17:1 
1 1 12:5 14:3 16:1 17:1 
1 1 8:1 12:1 14:10 17:2 
0 1 12:1 14:5 16:2 17:5 
0 1 10:1 12:2 14:6 
1 1 12:2 14:2 16:1 
0 0.2998465664369186 10:1 12:2 14:6 16:3 17:1 
1 1 12:4 14:3 16:1 
0 1 12:2 14:3 16:3 17:1 
1 1 1:0.21052632 2:1 8:1 12:5 14:5 17:8 
1 1 3:1 8:1 12:2 14:5 16:2 17:6 
1 1 12:1 14:3 16:1 17:2 
0.9709141203242003 1 12:1 14:4 
1 0 8:1 12:4 14:4 16:3 17:2 
0 1 4:1 12:4 14:1 16:1 17:1 
0 1 10:3 12:1 14:3 
0 1 4:1 12:1 14:5 16:2 
0 1 12:3 14:3 16:1 
0 1 1:0.071428571 2:1 10:1 12:3 14:9 
0 1 12:3 14:3 16:1 
0 1 12:3 14:4 16:3 17:4 
0 1 3:1 12:1 14:5 16:3 17:1 
0.4709048300830187 1 3:1 12:1 14:8 16:3 
1 1 9:1 12:2 14:8 
1 1 3:1 8:1 12:4 14:6 16:2 17:1 
0 1 12:2 13:1 14:1 16:2 
0 1 1:0.33333333 2:1 12:2 14:4 
0 1 12:3 14:6 16:1 
0.6901775875104096 1 10:1 12:6 14:4 
0 0.3118463651946285 4:1 12:1 14:2 17:3 
1 1 3:1 8:2 12:4 14:4 16:1 17:10 
0.9844807190275453 1 12:4 14:5 17:6 
0 1 12:3 14:1 
0 1 10:1 14:6 16:3 17:1 
0 1 12:1 14:4 17:1 
0 1 12:3 14:3 16:3 17:1 
1 1 8:1 14:2 16:2 17:1 
1 1 11:1 12:1 14:5 16:1 
0 1 12:1 14:7 16:2 
0 1 10:2 12:2 14:3 
1 1 12:4 14:2 17:3 
0 1 12:1 14:4 16:3 
0 1 4:1 14:6 16:1 17:3 
0 1 10:1 12:1 14:4 16:2 
0.05545022613015987 1 1:0.1 2:1 12:1 14:2 15:1 16:2 
1 1 12:4 14:3 16:1 17:1 
1 1 8:1 12:2 14:1 17:2 
0 1 12:1 14:1 16:1 
0.6789215192205262 1 9:1 14:4 16:2 
1 1 8:1 12:3 14:6 16:1 17:1 
0 1 12:2 14:7 16:2 17:6 
0 1 12:3 14:2 16:1 17:3 
1 0 8:1 10:1 12:4 14:3 16:2 17:1 
1 1 3:1 8:1 9:1 12:2 14:4 16:2 17:4 
0 1 8:1 12:1 14:3 16:1 
0.1671142978243007 1 12:7 14:4 16:3 17:2 
0 1 12:1 14:1 16:1 
0 1 10:1 12:3 14:3 
0 1 12:4 14:1 17:3 
0 1 14:6 16:4 
0 1 3:1 12:3 14:3 16:1 
1 1 3:1 12:1 
1 1 1:0.071428571 2:1 8:1 12:3 14:8 16:1 17:1 
0 1 12:3 14:2 16:1 17:1 
1 1 8:1 12:1 14:4 16:1 17:1 
0 1 10:1 12:1 14:2 17:2 
0 1 12:1 14:7 
0.8409379023107204 0 14:5 16:4 17:6 
0 1 3:1 4:1 12:1 16:1 
0 1 10:1 12:1 14:3 16:1 
0 1 3:2 14:6 16:1 
1 1 12:4 14:1 17:1 
0.9570799166714926 1 12:2 14:3 16:1 17:1 
0 1 10:1 12:2 14:3 16:2 
0 1 12:2 14:5 16:3 17:1 
0 1 10:1 12:1 14:2 17:3 
0.4773014911137984 1 12:3 14:3 16:1 17:3 
1 1 8:1 12:1 14:3 17:5 
1 1 1:0.16666667 2:1 9:1 14:4 
0 1 12:3 14:6 17:1 
0.0055040003964069 1 12:2 14:3 16:1 
0 1 4:1 14:2 16:1 
0 1 12:1 14:1 
1 1 12:3 14:5 
0.0687702831129572 0.6807048728591834 1:0.22222222 2:1 10:2 12:4 14:4 
0 1 12:2 14:2 16:2 17:1 
0 1 12:3 14:7 16:2 
0 1 10:1 12:2 14:5 17:1 
0 1 12:3 14:2 16:1 
1 1 12:1 14:3 16:1 
0 1 10:1 12:3 14:3 16:1 
0 1 12:6 14:5 16:1 17:3 
0.1736977517738325 1 3:2 12:1 14:2 
1 1 8:1 12:4 14:4 17:2 
0 1 12:3 14:5 16:1 
1 1 12:5 14:3 16:1 
1 1 8:1 12:2 14:4 17:1 
0 1 12:4 14:1 17:3 
0 0.6479873404555335 12:2 14:4 16:4 17:2 
1 1 12:1 14:2 17:3 
0 1 12:2 14:6 16:4 
1 1 12:5 14:4 17:3 
0 1 12:2 14:4 16:3 17:1 
0.4692204638356299 0 1:0.058823529 2:1 10:1 12:3 14:5 16:3 17:3 
0 1 1:0.375 2:1 12:2 14:3 16:2 
1 1 8:1 12:3 14:3 16:2 17:3 
0 1 12:1 14:3 16:2 
0 1 14:3 16:4 
0 1 10:1 14:4 
1 1 12:4 14:7 16:1 17:1 
0 1 10:1 12:1 14:3 16:1 
1 1 12:1 14:7 16:1 17:3 
1 1 9:1 12:3 14:5 17:1 
0 1 1:0.28571429 2:1 12:1 14:4 16:1 
1 1 12:2 14:2 16:1 
1 0 10:2 12:2 14:1 16:1 17:1 
0 1 10:1 12:1 14:2 
0 1 3:1 12:3 14:1 
0 1 12:3 14:1 16:1 17:3 
1 0 8:1 12:3 14:4 16:3 17:2 
1 0 8:2 10:2 12:1 14:6 16:1 
0 1 10:1 12:2 14:1 16:2 17:1 
1 1 12:4 14:7 16:1 17:2 
0 1 4:1 12:1 14:8 16:2 
1 1 12:3 14:2 17:8 
0.03165690784000669 1 14:2 
0.4754571135253891 1 3:3 14:10 16:2 17:3 
1 0.3056477858790521 8:1 10:2 12:7 17:2 
1 1 14:5 
0 1 1:0.22222222 2:1 11:1 12:1 14:4 
1 1 8:1 12:5 14:2 16:3 17:1 
1 1 8:1 14:5 16:3 
1 1 12:5 14:2 
0.7538460328725753 0 8:1 10:1 12:2 14:5 16:3 17:1 
1 1 12:5 14:2 16:1 17:4 
1 1 12:6 14:3 16:1 
0 1 1:0.1 2:1 4:1 14:7 16:1 17:1 
1 1 12:1 14:6 16:1 17:7 
1 1 3:1 12:5 14:2 16:1 17:2 
1 1 8:1 12:9 14:2 17:4 
0 1 4:1 12:7 14:5 
0.1135458827498454 1 3:1 12:1 14:2 17:1 
0 1 3:1 12:3 14:2 16:2 17:3 
0 1 3:1 12:2 14:4 16:1 
0 1 12:2 14:6 16:1 17:1 
1 1 8:1 12:3 14:3 17:1 
0 1 10:1 12:2 14:3 16:1 17:3 
1 0.08162552814454418 8:1 10:1 12:6 13:1 14:3 16:1 17:1 
0.06186060640926944 1 12:2 14:3 16:1 
0 1 10:1 12:3 14:4 17:3 
0.8262679322248837 1 12:3 16:1 
1 1 9:1 10:1 
1 1 12:2 14:1 17:1 
0 1 12:2 14:5 
0 1 12:2 16:1 
0 1 12:3 14:3 16:1 
0 1 10:1 12:4 14:5 16:1 
0 1 3:1 12:2 14:3 17:1 
1 1 9:1 12:2 14:2 17:5 
0 1 1:0.071428571 2:1 3:1 12:5 14:5 16:3 
1 1 12:6 14:2 16:1 17:2 
0 1 3:1 14:5 16:3 
1 1 12:4 14:3 
0 1 1:0.26315789 2:1 10:1 12:3 14:9 16:1 17:3 
0 1 10:1 12:2 14:4 
0 1 3:1 12:4 14:5 16:2 
0.03540510339069244 1 14:3 16:1 
0 1 12:3 14:2 17:3 
1 1 12:4 14:2 16:1 17:2 
1 1 8:1 12:2 14:2 16:1 17:2 
0 1 12:3 14:2 16:1 
0 1 10:1 14:3 16:2 17:3 
0.1231501011881062 1 12:2 14:5 16:1 17:3 
1 1 12:3 14:7 16:1 17:3 
0 1 3:1 14:4 16:1 
0.2482615356684079 1 3:2 12:3 14:1 16:1 17:1 
0 1 12:1 14:2 16:4 
0 1 10:1 12:3 14:3 16:1 17:1 
0 1 1:0.090909091 2:1 8:1 10:1 14:3 16:2 
1 1 8:1 12:1 14:4 16:1 17:8 
0 1 12:5 14:4 16:1 17:5 
0 1 6:1 12:2 14:3 16:2 
0 1 10:1 12:5 14:3 16:1 17:1 
1 1 8:1 12:1 14:1 16:1 17:3 
1 1 8:1 9:1 12:1 14:2 16:1 17:4 
1 1 12:2 14:4 16:2 
0 1 12:3 14:4 16:1 17:2 
1 1 12:5 14:5 
0 1 12:2 14:5 16:2 17:1 
1 1 3:1 12:4 14:4 16:3 
0 1 12:2 14:2 16:3 17:4 
1 0 8:1 10:2 12:4 14:4 16:2 17:3 
0 1 4:1 12:1 
1 1 3:1 12:2 14:3 16:1 17:4 
0.6528092468768927 1 12:1 14:2 
0 1 4:1 12:2 14:6 16:1 
0 1 3:1 12:1 14:5 16:1 17:3 
0 1 12:3 14:5 16:2 17:1 
1 0 8:1 12:2 14:4 16:4 17:2 
0 1 10:1 12:3 14:4 17:1 
1 1 8:1 10:1 12:4 14:2 17:1 
1 1 12:1 14:7 16:3 17:1 
1 1 8:1 10:1 14:5 16:1 17:3 
0 1 10:1 12:3 14:1 16:2 
0 1 3:1 12:1 14:6 16:1 
0 1 12:3 14:10 16:1 17:6 
0 1 12:2 14:2 16:1 17:3 
1 1 1:0.066666667 2:1 9:1 12:3 13:1 14:9 17:1 
0 1 1:0.11111111 2:1 10:1 12:5 14:2 
1 1 14:3 16:2 17:1 
1 1 1:0.125 2:1 3:1 8:1 12:2 14:3 16:1 17:1 
0 1 1:0.071428571 2:1 3:1 6:1 12:2 14:5 16:1 
0 1 12:2 14:2 17:1 
0.2958197110644834 1 3:1 12:4 14:1 16:1 17:5 
0 1 12:2 14:2 16:2 17:1 
0 1 1:0.1 2:1 12:3 14:1 16:2 17:3 
0.1070264028709912 1 12:1 14:7 16:1 17:6 
1 1 12:2 14:9 16:1 
0.391879673593499 1 12:3 14:3 16:1 17:2 
1 1 12:4 14:4 17:1 
1 1 12:3 14:6 16:4 
0.8716710116768708 1 1:0.26666667 2:1 12:2 14:9 16:3 17:1 
0 1 1:0.076923077 2:1 12:1 14:8 16:1 17:3 
1 1 8:1 12:3 14:5 16:2 17:1 
0 1 10:1 12:2 14:3 16:1 17:2 
1 1 3:1 12:3 14:3 16:1 17:7 
0.9903477632648272 1 12:3 14:5 16:2 
0 1 12:2 14:3 17:1 
0.1782674625810496 1 12:1 14:4 16:1 
0.02308258766734317 0.05568325234491948 10:3 12:2 14:7 16:2 
0 1 3:1 12:3 14:2 
1 1 12:4 14:3 16:2 
1 1 1:0.22222222 2:1 12:3 14:4 17:1 
1 1 8:1 12:3 14:5 16:3 17:2 
0 1 12:1 14:5 16:2 
0 1 12:3 14:4 16:2 17:3 
0.861221612445263 1 12:1 14:8 16:2 17:3 
0 1 1:0.25 2:1 12:2 14:6 
0 1 12:3 14:2 16:3 17:3 
0 1 14:4 16:2 
0 1 3:1 12:1 14:3 
0 1 10:1 12:3 14:5 16:2 17:4 
1 1 3:1 8:1 12:4 14:2 16:2 17:1 
0 1 10:1 12:1 14:4 16:1 
1 1 1:0.090909091 2:1 12:2 14:6 17:3 
0 1 4:1 12:4 14:4 17:3 
1 1 12:2 
0 1 12:2 14:6 17:1 
1 0 1:0.066666667 2:1 4:1 8:1 12:3 14:6 16:1 17:2 
0.6754904207840765 1 12:1 14:3 16:2 17:4 
1 1 12:2 14:1 17:2 
1 1 12:5 14:8 16:1 17:3 
0 1 14:2 16:1 
1 1 8:1 12:2 14:2 16:1 17:1 
0 1 12:2 14:7 16:2 17:6 
0 0.03040197615604228 3:1 14:4 16:2 17:7 
0 1 10:1 12:2 14:2 
1 1 12:4 14:5 16:2 
1 1 8:1 12:3 14:5 16:2 17:4 
1 1 12:3 14:5 
0 1 6:1 8:1 12:2 14:3 17:1 
1 1 1:0.058823529 2:1 3:1 8:1 12:6 14:4 17:6 
0 1 1:0.090909091 2:1 3:1 12:1 14:6 16:2 
0 1 12:3 14:2 16:2 
0 1 12:3 14:6 16:2 17:1 
1 1 1:0.083333333 2:1 3:1 12:2 14:5 16:1 17:3 
0 1 3:1 12:2 14:3 
0 1 12:3 14:4 
1 1 12:5 14:7 16:1 
0 1 1:0.090909091 2:1 3:1 14:8 
1 1 9:1 12:2 14:3 17:4 
0 1 14:4 16:1 17:3 
1 1 12:5 14:3 
0.886402563416782 1 12:2 14:4 16:1 
0 1 3:1 12:3 14:2 17:1 
1 1 12:1 14:2 16:2 
0 1 10:1 12:1 14:3 16:1 17:1 
0 1 3:1 14:1 
0 1 10:1 12:3 14:4 16:1 
1 1 12:2 14:3 16:1 17:3 
1 1 3:1 12:4 14:3 17:1 
0.9770994149417025 1 1:0.090909091 2:1 12:4 14:2 16:3 17:2 
0 1 6:1 14:4 16:2 17:3 
1 1 1:0.090909091 2:1 3:1 12:3 14:4 
0 1 4:1 12:6 14:3 17:1 
0 1 12:1 14:5 16:2 17:1 
0 1 12:2 14:2 16:3 
1 1 3:1 8:1 12:4 14:2 17:1 
0 1 12:3 14:6 16:2 17:1 
1 1 9:1 12:7 14:2 17:3 
0 1 10:1 16:1 
0 1 12:1 14:3 17:1 
1 1 9:1 12:3 14:4 15:1 16:2 
0 1 1:0.1 2:1 3:1 4:1 12:1 14:5 16:1 
0 1 10:1 12:1 14:1 16:1 17:1 
0 1 3:3 12:1 14:5 16:1 17:4 
1 1 8:1 12:4 14:5 16:1 17:7 
1 0.5793484975803007 8:2 12:2 14:3 16:3 17:4 
1 1 3:2 8:1 12:3 14:3 
0.3127871070546801 1 3:1 12:1 14:3 16:2 17:4 
0.2674310540294302 1 12:2 14:3 16:2 
1 0 6:2 8:1 12:5 14:3 16:2 17:2 
0 1 12:1 14:6 16:2 17:3 
0 1 12:1 14:4 16:1 17:1 
0 1 10:1 12:4 14:4 16:1 17:2 
1 0 8:1 10:2 12:3 14:6 17:1 
1 1 4:1 8:1 12:3 17:1 
1 1 8:1 12:4 14:2 16:2 17:1 
0 1 10:1 12:1 14:4 16:1 
0 1 6:1 12:3 14:5 16:2 17:6 
0 1 12:1 14:2 16:4 17:1 
0 1 10:1 12:7 14:6 16:1 
0 1 10:1 12:5 14:6 16:1 
1 1 12:3 14:4 16:3 17:7 
1 1 12:4 14:3 16:1 
1 1 9:1 12:2 16:1 17:3 
0.8464800294188598 1 12:3 14:3 17:1 
0.8118215133960741 0 8:1 10:3 12:5 14:3 17:1 
0 1 1:0.25 2:1 12:1 14:1 16:1 
0 0.3005010221179882 10:1 12:3 14:6 16:2 17:7 
0 1 3:1 12:3 14:2 16:2 17:1 
0 1 10:1 12:4 14:5 16:1 
0 1 12:2 14:7 16:2 
0 1 12:4 14:5 16:1 17:2 
0 1 10:1 12:4 14:4 
1 1 3:1 12:2 14:4 16:2 17:1 
0 1 10:1 12:1 14:5 16:2 17:1 
0 1 1:0.2 2:1 10:1 12:1 14:3 
1 1 3:1 12:6 14:2 17:2 
0 1 12:2 14:4 17:1 
0 1 4:1 12:3 14:8 16:1 17:1 
1 1 1:0.14285714 2:1 8:1 12:1 14:4 17:1 
0.1306856134930959 1 10:1 12:1 14:4 17:1 
1 0 1:0.05 2:1 3:1 8:1 10:1 12:4 14:1 16:1 17:1 
1 1 12:2 14:3 16:1 
1 1 8:1 12:2 14:4 16:1 17:1 
0 1 4:1 12:4 14:1 
1 1 12:3 14:4 16:3 17:6 
1 1 12:4 14:6 16:2 17:5 
0 1 10:1 12:1 14:6 16:1 
1 1 3:2 8:1 12:4 14:2 17:1 
0 1 12:3 14:4 16:1 17:1 
0 1 14:3 17:1 
0 1 12:3 14:5 16:1 
0.01635112664317002 1 12:2 14:2 
1 1 12:4 14:4 16:1 
1 1 12:2 14:3 16:2 17:2 
0 1 3:1 12:3 14:1 
1 1 3:2 8:1 12:2 14:4 17:2 
1 0 8:1 10:1 12:3 14:3 16:3 17:6 
0 1 10:1 12:1 14:5 16:1 
0.4057847830168543 1 12:2 14:6 16:2 17:1 
0.8998566670836926 1 12:3 14:7 16:1 17:1 
0 1 4:1 14:1 16:1 
0 1 1:0.076923077 2:1 12:4 14:4 16:1 17:3 
0 1 1:0.076923077 2:1 12:1 14:9 16:1 
0 1 1:0.33333333 2:1 10:1 12:4 14:5 16:1 17:1 
0 1 1:0.16666667 2:1 10:1 12:2 14:1 16:1 
1 1 3:1 12:4 14:2 17:1 
0 1 1:0.15384615 2:1 12:2 14:7 16:2 
1 1 12:6 14:3 16:2 
1 1 12:4 14:5 17:1 
0 1 3:1 12:3 14:3 16:2 17:1 
1 1 8:1 12:2 14:6 16:1 17:1 
0 1 12:3 14:4 17:1 
1 1 12:3 14:2 16:3 17:1 
1 1 12:2 14:4 16:2 
1 1 1:0.083333333 2:1 3:1 12:5 14:5 
0 1 3:1 10:1 12:1 14:3 16:1 17:1 
1 1 8:1 12:2 14:6 16:2 
1 1 12:1 14:8 17:1 
0.4279512481887012 1 1:0.4 2:1 16:2 17:1 
1 1 3:1 12:2 14:6 16:1 
0.9550786279921134 1 12:2 14:4 16:2 17:4 
0 1 4:1 12:1 16:1 
0 1 1:0.10526316 2:1 10:1 12:5 14:7 16:1 17:1 
1 1 5:1 8:1 12:7 14:3 16:1 17:2 
0 1 12:3 14:2 16:2 
0.09894083277232879 1 12:2 14:6 16:1 17:3 
1 1 1:0.2 2:1 8:1 10:1 12:1 16:2 17:1 
0 1 12:1 14:1 16:1 
0.1282056996933939 1 1:0.375 2:1 3:3 12:2 14:2 
1 1 12:2 14:4 16:1 17:6 
1 1 12:3 14:3 16:2 17:4 
0.2120500539455905 1 14:3 16:1 
0 1 12:2 14:7 16:2 
1 1 12:1 14:4 16:1 17:3 
1 1 3:1 12:3 14:4 17:1 
1 1 12:2 14:5 16:2 
1 0 10:2 12:3 14:5 16:1 
0.9987009658706599 1 10:1 12:6 14:7 16:1 
0 1 12:2 14:1 
1 1 8:1 12:5 14:2 16:2 17:1 
1 1 12:4 14:3 16:2 
0 1 10:1 12:2 14:1 
1 1 12:3 14:5 
1 1 12:3 14:4 16:2 17:7 
0 1 4:1 12:2 14:7 16:1 
0 1 12:3 14:3 16:1 
0 1 10:1 12:3 14:3 16:1 17:1 
1 1 12:5 14:5 16:1 
0 1 12:2 14:4 16:1 
0.6810064003927908 1 12:2 14:8 16:1 
0 1 9:1 12:2 14:5 16:3 
0 1 12:1 14:1 
0 1 1:0.11111111 2:1 3:1 4:1 12:1 14:5 
0 1 12:4 14:7 16:2 17:1 
0.3316034915716795 1 1:0.05 2:1 3:3 11:1 12:6 14:7 16:1 
1 1 3:2 8:1 12:5 14:4 17:2 
0 1 1:0.071428571 2:1 3:1 12:3 14:3 16:3 17:1 
0 1 12:4 14:5 16:1 17:1 
0.3538805773609496 1 12:1 14:6 16:1 17:3 
1 1 8:1 10:1 12:5 14:4 17:3 
0 1 12:1 16:1 17:1 
0 1 1:0.1 2:1 3:1 12:1 14:6 16:2 
1 1 1:0.1 2:1 12:4 14:4 16:2 
0.920334053084247 1 12:2 14:2 
0 1 10:1 12:1 14:2 16:1 
1 1 11:1 12:5 14:3 16:1 17:1 
0 1 3:1 12:2 14:6 16:2 
0.238785858353376 1 12:5 14:5 16:1 17:1 
0 1 12:3 14:4 16:2 17:3 
1 1 12:2 14:5 16:2 17:10 
0 1 10:1 12:1 14:4 16:1 17:3 
1 0 8:1 10:1 12:3 14:5 16:1 17:1 
0 1 14:5 16:2 
0 1 12:3 14:4 16:1 17:1 
0 1 12:1 14:2 16:1 
0 1 4:1 12:6 14:7 16:1 17:1 
0 1 10:1 12:2 14:2 16:1 17:2 
0.2632859519278356 1 12:3 14:2 
0 0.2012851597461681 4:1 12:3 14:2 
1 1 3:3 12:4 14:2 
0 1 10:1 12:2 14:9 16:3 
0 1 12:5 14:6 16:1 17:1 
0 1 12:2 14:7 16:2 
1 1 8:1 12:2 14:3 17:1 
0 1 3:3 12:4 14:2 17:1 
0 1 12:2 14:4 17:1 
0 1 3:1 10:1 12:2 14:4 16:1 
1 1 8:1 10:1 12:4 14:3 17:6 
0 1 3:1 12:4 14:3 16:2 17:1 
0.8683685183060917 1 3:2 12:1 14:1 16:2 17:1 
0.3109108631108904 0 1:0.055555556 2:1 8:1 10:3 12:2 14:3 16:3 17:4 
0.1583198662851875 1 12:2 14:3 16:1 17:1 
0 1 1:0.14285714 2:1 12:2 14:4 17:1 
0 1 3:1 14:3 16:1 17:5 
0 1 10:1 12:3 14:1 17:1 
0 1 10:1 12:1 14:3 16:2 
0 1 10:1 12:4 17:1 
0 1 10:1 12:1 14:3 16:2 
0 1 1:0.071428571 2:1 3:2 12:1 14:6 16:3 17:1 
1 1 12:3 14:7 16:2 17:4 
0.2384579821516845 1 12:2 14:4 16:1 
1 0.7250629470156346 8:2 10:1 12:1 14:3 16:2 17:7 
0 1 14:6 16:1 
0.7545536484126141 1 3:1 9:1 12:3 14:1 16:2 
1 1 1:0.083333333 2:1 12:4 14:4 16:1 17:1 
0.5505809970729397 0 10:3 12:2 14:2 16:2 17:5 
1 1 3:1 12:4 14:4 
1 1 3:2 12:2 17:1 
0 1 12:1 14:8 16:1 
0 1 1:0.058823529 2:1 4:1 12:4 14:6 16:2 17:4 
1 1 8:2 12:6 14:1 16:3 17:4 
0 1 11:3 12:3 14:1 
0 1 1:0.11111111 2:1 8:1 10:1 12:2 14:3 17:1 
0 1 12:1 16:1 
0 1 10:1 12:4 14:4 
1 1 3:1 8:1 12:2 14:3 17:1 
0 1 12:2 14:5 16:2 17:1 
0 1 12:4 14:1 16:1 
0.7859099642580119 1 12:1 14:2 16:1 
0 1 10:1 12:3 14:2 
0 1 4:1 14:6 
0.8742141903801192 1 9:1 14:6 16:3 
0 1 3:1 12:2 14:2 
1 1 12:3 14:3 
1 1 3:1 8:2 12:4 14:3 16:1 17:1 
0 1 10:1 12:1 14:2 16:1 
1 1 3:1 12:3 14:2 17:6 
0.2281021339541561 1 12:2 14:5 16:1 17:3 
0 1 10:1 12:3 14:2 17:3 
0 1 12:2 14:4 16:3 17:3 
0 1 10:1 12:3 14:2 16:1 17:3 
1 1 3:1 8:1 12:3 14:3 16:2 17:1 
1 1 3:1 8:1 12:2 14:4 16:1 
0 1 12:2 14:7 16:1 17:1 
0 1 1:0.23076923 2:1 10:1 12:3 14:4 16:2 
1 1 12:5 14:3 16:1 17:2 
0 1 10:1 12:3 14:5 16:1 
0 1 10:1 12:1 14:2 16:1 17:4 
0.4073054577089558 1 12:3 14:5 16:1 17:3 
0 1 10:1 12:1 14:2 16:1 
0 1 1:0.33333333 2:1 12:1 14:5 16:1 
0.05961590355343756 1 10:3 12:6 14:3 
0.3524926536188903 1 1:0.052631579 2:1 3:2 12:2 14:8 16:1 17:4 
1 1 8:1 12:2 14:3 16:2 17:4 
0 1 10:1 12:3 14:3 16:1 17:3 
1 1 8:1 12:5 14:5 16:1 17:2 
0.01073637813414348 1 14:4 16:1 
0 1 12:1 14:6 16:1 
0 1 10:1 12:3 14:1 
0 1 1:0.076923077 2:1 6:1 12:3 14:7 16:2 
0 1 12:1 14:5 16:2 
1 1 12:3 14:5 16:1 17:6 
1 1 12:5 14:5 
0 1 1:0.28571429 2:1 10:1 12:1 14:3 
0 1 12:3 14:4 
1 1 3:1 8:1 12:2 14:1 16:1 17:2 
0 1 12:2 14:6 16:2 17:3 
0.7750818643884984 1 12:2 14:5 16:1 17:5 
1 1 12:2 14:4 16:1 17:2 
0 1 12:3 14:1 17:2 
0.1024573216728024 1 12:4 14:6 16:3 17:1 
0 1 14:3 16:3 
1 1 12:4 14:2 
1 0 12:4 14:4 16:5 17:1 
0.5394014675153767 1 6:1 12:2 16:1 
1 1 12:4 14:3 17:1 
0.8538917588655928 1 1:0.076923077 2:1 12:2 14:6 16:2 17:1 
0 1 3:1 12:2 14:4 
0 1 3:1 12:1 14:4 16:1 17:1 
0 1 10:1 12:2 14:1 16:2 17:1 
0 1 12:1 14:6 16:2 17:4 
0 1 1:0.0625 2:1 4:1 13:1 14:9 17:1 
0 1 10:1 12:1 14:2 16:1 17:1 
1 1 8:1 10:1 12:6 14:4 16:2 17:4 
1 1 12:1 14:4 17:4 
0 1 8:1 10:1 12:2 14:4 17:1 
0 0.9804984706163757 4:1 6:1 12:2 14:2 16:1 17:7 
1 1 12:1 14:7 16:5 17:4 
0 1 12:3 14:4 17:1 
1 1 12:4 14:7 17:5 
0.8391818258500925 1 11:3 12:3 14:1 
0 1 1:0.14285714 2:1 12:1 14:4 16:2 
0 1 4:1 12:3 14:5 17:6 
0 1 10:1 12:3 14:1 
0.01653031853224915 1 14:3 16:1 
0 1 12:1 14:6 16:3 17:3 
0 1 3:1 12:3 14:3 
0 1 12:1 14:4 16:2 
1 1 10:1 14:5 17:7 
0 1 3:1 4:1 12:5 14:2 16:2 
0 1 6:1 12:4 14:4 16:2 17:1 
0 1 12:1 14:6 16:1 
1 1 1:0.071428571 2:1 8:1 12:4 14:7 16:1 17:1 
0 1 12:1 14:1 16:1 
0.5868044711188851 1 12:1 14:4 16:1 
0 1 4:1 14:3 16:1 17:4 
0 1 3:1 12:2 14:2 16:4 
0 1 10:1 12:2 14:4 17:1 
0 0.8091818297455997 3:1 4:1 12:1 14:3 16:1 
1 1 12:2 14:6 
1 1 1:0.071428571 2:1 3:1 12:2 14:6 16:1 
0 1 12:1 14:2 17:1 
1 1 12:2 14:1 16:3 17:2 
0 1 3:1 12:3 14:5 
0.1223645393020879 1 12:2 14:2 16:2 
0 1 12:2 14:6 16:2 17:6 
0.1086595704397868 0 4:1 12:4 14:4 16:4 17:7 
1 1 12:3 14:8 16:1 17:4 
0 1 10:1 12:5 14:3 16:1 17:4 
0 1 12:3 14:2 16:2 17:3 
1 1 12:1 14:5 17:2 
0 1 10:1 12:1 14:5 16:2 17:1 
1 1 8:1 12:3 14:3 17:1 
1 1 9:1 12:3 14:3 16:2 
0 1 1:0.5 2:1 12:1 14:1 16:3 17:1 
1 1 3:1 8:1 12:1 14:2 17:1 
1 0 1:0.058823529 2:1 4:1 8:2 10:1 12:1 14:3 16:1 17:4 
0 1 3:1 12:2 14:2 16:2 
1 1 12:2 14:2 16:1 17:1 
1 1 8:1 12:4 14:6 16:1 17:2 
1 1 3:1 12:5 14:3 16:1 
0 1 12:3 14:4 16:1 17:3 
0 1 12:2 14:5 16:2 17:3 
1 0 4:1 5:1 12:6 14:3 16:4 17:3 
0 1 12:1 14:2 16:2 17:1 
0 1 12:2 14:4 16:3 
0 1 12:1 14:2 17:1 
0 1 1:0.22222222 2:1 10:1 12:1 14:3 16:2 
0 1 12:1 14:4 16:2 17:4 
0 1 12:4 14:6 16:1 17:1 
0.9253534922192741 1 12:2 14:3 16:2 17:1 
1 1 8:2 12:6 14:3 17:2 
1 1 9:1 12:3 14:5 16:1 17:1 
0 1 12:2 14:6 16:5 
1 1 12:3 16:2 
0.2029522331167085 1 12:3 16:1 
0 1 10:1 12:2 14:2 
0 1 10:1 12:1 14:2 16:1 17:3 
1 1 12:2 14:5 16:1 17:3 
1 1 3:1 8:1 12:2 14:3 17:2 
1 1 12:3 14:5 16:2 17:2 
0 1 1:0.2 2:1 3:1 12:2 14:2 
1 1 14:5 16:1 17:3 
1 1 12:2 16:1 17:3 
0 1 1:0.54545455 2:1 10:1 12:2 14:5 16:1 
1 1 3:1 12:4 14:5 
0 1 3:1 12:2 14:4 
1 1 1:0.076923077 2:1 8:1 10:1 12:2 14:7 16:2 17:1 
0 1 8:1 10:1 12:2 14:3 17:1 
0 1 3:1 12:2 14:2 16:1 
1 1 12:2 14:4 16:1 17:6 
1 1 12:3 14:5 16:2 17:3 
0 1 12:1 14:1 16:1 17:1 
0 1 1:0.071428571 2:1 3:1 12:3 14:3 16:3 17:1 
1 1 12:4 14:1 16:1 17:2 
1 1 12:5 14:2 16:2 17:1 
0 1 3:1 12:1 14:5 
1 1 12:1 14:2 16:1 17:3 
0.04128628578191858 1 3:1 12:2 14:6 16:1 17:4 
0.1649868103237467 1 12:5 14:3 15:1 16:1 17:1 
0 1 3:2 12:1 14:4 16:1 17:1 
0 1 12:2 14:6 16:4 17:1 
0 1 12:3 14:3 16:2 
1 1 1:0.066666667 2:1 3:1 8:1 12:5 14:3 17:4 
0.9080079042595038 1 12:2 14:5 16:6 17:3 
1 1 8:1 12:4 14:6 16:2 17:9 
1 1 3:2 8:1 12:1 14:4 16:1 17:1 
0 1 12:2 14:3 16:2 17:3 
0 1 10:1 12:4 14:4 17:1 
0 1 12:3 14:5 16:1 
0 1 12:2 14:1 
0 0.3130062589864654 1:0.23809524 2:1 3:1 4:2 12:1 14:10 16:1 17:1 
0.2136634907910759 1 14:3 16:1 
0 1 12:1 14:4 16:2 
0 1 10:1 12:2 14:6 16:1 
0 1 3:1 12:3 14:4 16:1 
1 1 9:1 12:2 14:3 17:4 
0 1 12:1 14:6 
0 1 3:1 12:1 14:4 
0 1 12:2 14:2 16:2 17:1 
0 1 10:1 12:1 14:9 16:2 17:1 
0 1 3:1 12:3 14:1 16:1 17:1 
0 1 14:5 16:3 
1 1 12:3 14:3 
0 1 3:2 12:4 14:3 17:3 
1 1 8:1 10:1 14:6 17:1 
0 1 12:1 14:2 16:1 17:1 
0 1 12:2 14:2 16:2 17:3 
0.0544859761502629 1 3:1 12:1 14:2 17:1 
0.3501734499533278 1 12:9 14:8 16:2 17:1 
1 1 8:1 12:3 14:3 16:1 17:1 
1 1 12:3 14:4 16:1 17:4 
1 1 12:1 14:4 16:1 17:3 
1 1 12:1 14:3 16:1 
1 0 8:1 10:1 12:4 14:3 16:1 17:1 
0.2361652292547508 1 12:3 14:8 16:2 
1 1 12:2 14:2 
1 1 12:2 14:3 16:1 17:1 
0 1 3:1 12:4 14:1 
0 1 10:1 12:1 14:2 16:1 17:2 
0 1 1:0.46153846 2:1 3:1 10:1 12:2 14:5 16:1 
1 1 9:1 12:2 14:1 
0 1 6:1 12:4 14:2 16:1 
0.003667491223659643 1 1:0.33333333 2:1 14:6 16:3 
1 1 12:4 14:5 16:2 
0 1 4:1 12:3 14:5 
0.06028254935493015 1 14:5 16:1 
1 1 12:1 14:2 16:1 
0 1 1:0.090909091 2:1 10:1 12:1 14:5 16:1 17:1 
1 1 8:1 12:4 14:5 16:1 17:1 
1 1 1:0.071428571 2:1 12:5 14:5 16:3 
1 1 1:0.2 2:1 3:1 14:5 16:2 17:2 
0.8383372365729093 1 3:1 12:4 14:1 16:2 17:1 
0 1 1:0.11764706 2:1 12:5 14:5 16:1 17:6 
1 1 8:1 12:4 14:5 16:2 17:6 
0.6655355932530166 1 1:0.11111111 2:1 8:1 10:1 12:1 14:5 
0.9345969093140509 1 12:3 14:3 17:1 
0 1 10:1 12:1 14:3 16:3 
1 1 8:1 12:3 14:4 16:2 17:5 
0 1 12:1 14:4 16:2 17:4 
0 1 10:1 12:2 14:5 16:1 
0 1 10:1 12:4 14:3 16:2 
0 1 10:1 12:3 14:6 16:1 17:7 
0 1 4:1 12:5 14:2 
0 1 14:1 16:1 
0 1 1:0.071428571 2:1 3:1 12:3 14:3 16:3 17:1 
0 1 12:4 14:3 16:2 17:2 
0 1 12:1 14:3 16:2 
1 1 3:1 12:2 14:2 16:1 17:1 
1 1 8:1 10:1 12:5 14:1 17:1 
1 1 12:4 14:5 
0 1 12:1 14:1 16:1 
1 1 8:1 12:6 14:3 16:3 17:5 
1 1 1:0.05 2:1 3:1 8:1 12:4 14:4 16:2 17:3 
0 1 10:1 12:1 14:2 16:1 17:1 
1 1 8:1 14:1 16:1 17:1 
0 1 10:1 12:2 14:3 16:2 
0.7066729900207506 1 12:3 14:2 
0 1 12:3 14:4 17:1 
0 1 12:1 14:1 16:2 
1 1 8:1 12:4 14:9 17:2 
0 1 10:1 12:2 14:4 16:1 
0.05164250269661062 1 12:2 14:2 16:2 
1 1 12:1 14:2 16:1 17:5 
1 1 12:4 14:1 16:1 17:2 
0 1 12:2 14:4 16:1 
1 1 12:4 14:5 17:1 
0.2839285027533834 1 1:0.1 2:1 14:4 16:4 17:1 
0 0.5919300884656744 4:1 10:1 12:5 14:1 16:1 17:6 
0.7600948438599107 1 1:0.038461538 2:1 12:6 14:6 16:1 17:5 
0 1 1:0.0625 2:1 3:1 4:1 12:3 14:10 16:1 
1 1 1:0.055555556 2:1 3:1 8:1 12:5 14:6 17:4 
0.7290839276695491 1 
0 1 3:1 10:1 12:1 14:2 17:1 
0 1 3:1 12:2 14:2 16:1 
1 1 12:3 14:5 16:2 17:3 
1 1 8:2 12:2 14:5 16:1 17:1 
0 1 1:0.076923077 2:1 3:1 12:2 14:8 16:2 
1 1 12:4 14:1 17:1 
0 1 10:1 12:2 14:5 16:1 
1 1 3:1 12:2 14:5 16:1 17:1 
0.3549221847133168 1 1:0.25 2:1 12:2 14:3 16:2 17:1 
1 0 8:1 10:1 12:3 14:2 16:1 17:1 
0 1 12:2 14:5 16:1 17:1 
0 1 8:1 12:2 14:3 
0.1882702941455213 1 12:2 14:2 16:2 
1 1 12:2 14:1 16:1 17:1 
0 1 10:1 12:3 14:8 16:1 17:4 
1 1 8:1 12:4 14:2 17:2 
1 1 12:3 14:5 16:2 
0 1 12:1 14:4 16:2 17:1 
0 1 3:1 10:1 12:1 14:5 
1 1 12:5 14:4 16:2 17:1 
0.655255496671964 1 3:1 12:2 14:5 16:1 
0 1 3:1 10:2 12:4 13:2 14:6 
1 1 12:3 14:4 16:2 17:4 
0.007545763093878739 1 14:3 16:1 
1 1 12:7 14:1 16:1 17:1 
0 1 1:0.11111111 2:1 3:1 10:1 12:3 14:1 16:1 
1 1 8:1 12:3 14:3 
0 1 10:1 12:2 14:3 16:2 
0 1 3:1 12:4 14:2 16:1 17:2 
0 1 1:0.076923077 2:1 8:1 10:1 12:1 14:4 
0.5833155417148838 1 8:1 10:1 12:2 14:4 17:1 
0.2953053318697403 1 1:0.4 2:1 3:1 12:3 14:7 16:1 17:1 
0 1 10:1 14:5 17:2 
0.9953107916257735 1 1:0.1 2:1 12:2 14:6 16:2 
1 1 3:1 8:1 12:2 14:3 17:1 
0 1 1:0.076923077 2:1 12:4 14:6 16:1 17:2 
1 1 8:1 12:4 14:3 16:2 17:1 
1 0 3:1 4:1 8:1 12:4 14:6 16:1 17:1 
0 1 4:1 12:2 14:5 
0 1 3:1 12:3 14:3 16:3 
0 1 10:1 12:4 14:9 16:1 17:3 
1 1 12:4 14:4 
0 1 12:2 14:4 17:1 
1 1 12:2 16:1 17:1 
0.8980064017902339 1 12:1 14:5 16:1 17:3 
0.1366034867215911 1 3:1 6:1 12:3 14:3 16:1 17:6 
1 1 10:1 12:5 14:5 
0.6517578616631875 1 12:1 14:6 16:2 17:1 
1 1 1:0.13333333 2:1 12:3 14:6 16:2 17:4 
0 1 6:1 12:3 14:5 17:4 
0 1 4:1 14:2 
0 1 4:1 12:4 14:1 16:1 
0 1 10:1 12:1 14:5 16:1 17:1 
0 1 12:3 14:2 16:1 17:1 
1 1 8:1 12:2 14:4 17:4 
0 1 12:4 14:5 16:1 17:1 
0.9474562050240811 1 12:2 14:7 16:3 17:4 
0 1 12:1 14:5 16:2 17:2 
1 1 3:1 12:2 14:5 16:3 17:6 
0 1 1:0.076923077 2:1 12:1 14:9 16:1 
0 1 3:1 12:1 14:4 16:1 
1 1 4:1 8:1 12:4 14:6 16:1 17:5 
0 1 12:3 14:4 
0 1 12:2 14:4 16:2 17:1 
1 1 8:1 12:2 14:5 16:1 17:1 
0 1 3:1 12:1 14:5 
0 1 12:2 14:4 16:3 17:1 
0 1 1:0.125 2:1 12:1 14:5 16:1 
1 1 12:2 
0 1 4:1 12:2 14:1 
1 0 10:2 12:2 14:4 17:1 
1 0 1:0.045454545 2:1 3:1 4:1 5:1 12:2 14:5 16:2 17:3 
0 1 1:0.066666667 2:1 10:1 12:3 14:6 16:1 
1 1 3:2 12:2 14:3 16:1 17:2 
0 1 10:1 12:3 14:8 16:1 17:3 
1 1 12:2 14:2 16:1 
0.3877148689830857 1 14:1 16:2 17:5 
1 1 8:1 12:2 14:1 16:1 17:4 
1 1 9:1 12:3 14:1 16:1 17:2 
1 1 12:7 14:3 16:1 
0 1 14:2 16:1 
0 1 12:2 14:4 16:4 17:1 
0 1 14:2 16:1 
0 1 3:2 12:1 14:2 16:2 
1 1 8:1 12:2 14:2 16:2 17:2 
0 1 10:1 14:7 16:1 
0 0.8141284099769568 10:1 12:3 14:7 16:2 17:3 
0 0.84048931301759 4:1 12:3 14:4 17:3 
1 1 12:3 14:1 16:1 17:1 
1 1 12:5 14:5 16:3 17:1 
0 1 14:4 16:2 
1 1 8:1 10:1 12:2 14:1 16:1 17:3 
1 1 12:3 14:3 16:3 
0.1111127979563947 1 1:0.058823529 2:1 12:5 14:4 17:4 
0 1 10:1 12:3 14:3 16:1 17:1 
0 1 3:3 12:2 14:1 
0 1 1:0.125 2:1 12:1 14:3 16:2 
1 1 8:1 9:1 12:1 14:4 
1 1 3:1 12:5 14:3 16:1 17:2 
0 0.3778646377474211 1:0.16666667 2:1 4:1 10:3 12:3 
0 1 1:0.090909091 2:1 12:3 14:5 17:3 
0 1 10:1 12:4 14:4 17:3 
0.5439309743466364 1 1:0.64285714 2:1 12:2 14:4 16:4 17:2 
0 1 12:2 14:4 16:3 
0 1 12:4 14:1 17:3 
0 1 12:3 14:4 16:1 
0 1 3:2 12:6 
1 1 12:3 14:8 17:1 
0 1 12:1 14:2 16:1 17:1 
0 1 1:0.2 2:1 12:2 14:7 16:1 
1 1 8:1 12:4 14:1 16:1 17:4 
0 1 10:1 12:5 14:2 17:3 
0 1 1:0.57142857 2:1 12:1 14:3 16:1 
1 1 12:3 14:5 
1 1 12:4 14:4 16:1 17:1 
1 1 12:4 14:5 16:3 17:3 
0 1 1:0.071428571 2:1 12:4 14:6 16:1 17:2 
0.195748141970739 1 12:1 13:1 14:3 16:2 
1 1 3:1 8:1 12:2 14:4 17:4 
0 1 12:3 14:5 16:1 
0.9410484050143803 1 12:2 14:5 16:4 17:3 
0 1 1:0.2 2:1 4:1 12:2 14:1 16:1 
0 1 10:3 12:1 14:3 16:1 
0 1 14:1 16:1 17:1 
0.9869679717728348 1 12:1 14:4 16:1 
1 1 1:0.125 2:1 12:6 14:4 16:1 17:3 
1 1 12:5 14:3 16:1 17:4 
0 1 10:1 12:2 14:3 16:1 
0 1 12:1 14:2 17:1 
0.1601551389757873 0.920338838332305 10:1 12:1 14:2 16:2 17:1 
0.08368964156511237 1 12:3 14:5 16:1 
0.3687366334498244 1 3:1 12:1 14:3 16:1 
0 1 10:1 12:3 14:4 16:1 17:1 
0 1 12:3 14:2 16:1 17:2 
0.4009876969061991 1 12:1 14:6 16:1 17:3 
0 1 10:1 12:2 14:2 16:2 
0.8233407520812257 1 14:3 16:1 
1 1 1:0.18181818 2:1 12:5 14:3 17:3 
0 1 1:0.125 2:1 12:2 14:4 16:1 
1 1 12:3 14:7 16:2 17:1 
0 1 3:2 12:1 14:3 16:2 17:1 
0 1 12:2 14:7 17:1 
0 1 12:5 14:4 17:6 
1 1 8:1 12:1 14:6 16:1 17:3 
1 1 3:1 12:3 14:4 16:1 17:2 
0 1 1:0.1 2:1 14:5 16:3 
0 1 10:1 12:4 14:2 16:2 
0 1 12:2 14:9 16:1 17:4 
1 1 8:1 12:6 14:7 17:1 
0.9011721002805902 0 4:1 8:1 12:2 14:5 16:2 17:3 
0.4857134747281761 1 1:0.1 2:1 12:4 14:2 16:2 17:1 
0 1 12:6 14:1 
0 1 1:0.14285714 2:1 12:2 14:2 
0 1 10:1 12:4 14:5 16:1 17:3 
0 1 12:6 14:4 16:2 17:3 
0.6258710363999903 1 12:1 14:5 
1 1 8:1 9:1 12:1 14:5 17:1 
0 1 1:0.1 2:1 10:1 12:2 14:2 
0 1 10:1 12:1 14:7 16:2 
1 1 12:7 14:1 16:1 17:1 
1 1 8:1 12:3 14:3 17:1 
0 1 1:0.14285714 2:1 10:1 12:1 14:6 16:1 17:3 
1 1 12:1 14:2 
0 1 1:0.2 2:1 3:2 12:3 14:2 16:1 
0 1 1:0.14285714 2:1 4:1 14:1 16:1 
0 1 12:4 14:5 16:2 17:3 
1 1 4:1 8:1 12:1 14:5 16:1 17:4 
1 1 12:1 14:5 16:1 17:2 
1 1 12:2 14:8 16:2 17:1 
1 1 8:1 10:1 12:4 14:1 17:1 
0 1 12:2 14:3 16:4 
1 1 9:1 12:1 14:4 17:3 
1 1 1:0.11111111 2:1 12:2 14:4 16:2 
1 1 3:1 12:4 14:5 16:3 
1 1 8:1 12:1 14:4 17:1 
0 1 10:1 12:2 14:4 16:1 
0 1 1:0.11111111 2:1 12:2 14:4 16:1 
0 1 1:0.18181818 2:1 10:1 12:1 14:7 16:2 
0 1 1:0.071428571 2:1 12:3 14:7 16:3 17:1 
1 1 1:0.090909091 2:1 8:1 9:1 12:3 14:4 17:1 
0 1 3:1 12:2 14:3 
0 1 4:1 14:2 16:2 
0.409377750637628 1 12:6 14:6 16:2 17:7 
1 1 8:2 12:3 14:4 16:1 17:1 
1 1 12:2 14:1 16:1 17:4 
1 1 12:1 14:2 16:1 
0 1 10:1 12:2 14:5 16:2 
0 1 3:1 12:1 14:4 17:2 
0 1 4:1 12:2 14:6 
1 1 12:3 14:6 17:3 
0 1 12:3 14:2 16:1 
0 1 12:3 14:3 16:1 
0 1 4:1 12:2 14:9 16:2 
0.09501920620843278 1 12:1 14:1 17:1 
1 0 8:1 12:3 14:3 16:3 17:1 
1 1 8:1 12:2 14:4 16:2 17:1 
0 1 12:3 14:4 16:1 
0.9097197600027502 1 1:0.083333333 2:1 12:3 14:5 17:3 
0 1 1:0.2 2:1 4:1 14:1 16:1 
0 1 12:1 14:2 16:2 17:2 
1 1 12:2 14:1 17:1 
1 1 8:1 12:5 14:3 16:1 17:1 
1 1 1:0.0625 2:1 8:2 12:4 14:6 17:2 
0.4358924019956858 1 12:1 14:2 16:2 17:1 
1 1 12:1 14:2 
0 1 3:1 12:2 14:4 16:2 17:3 
0 1 1:0.058823529 2:1 14:7 16:3 17:3 
1 1 1:0.083333333 2:1 12:3 14:5 
0 1 1:0.071428571 2:1 12:2 14:7 16:2 
1 1 3:1 12:2 14:6 16:2 17:1 
0 1 6:1 12:3 14:3 16:1 
0 1 14:4 16:2 
1 1 8:1 12:2 14:4 16:2 
0 1 12:2 14:7 16:2 
0 1 10:1 12:2 14:5 17:3 
0 1 4:1 12:2 14:3 17:4 
0.8156741730283231 1 1:0.16666667 2:1 12:3 14:1 17:1 
1 1 3:1 12:2 14:5 16:1 
0 1 11:1 12:1 14:4 
0 1 12:3 14:6 16:2 17:1 
1 1 12:1 14:2 16:1 
0 1 4:1 12:6 14:4 17:1 
1 1 3:1 12:4 14:4 17:1 
0 1 14:4 16:1 17:1 
1 1 8:1 12:6 14:4 16:1 17:7 
0 1 14:2 17:2 
0.5813335658267098 0 8:1 10:3 12:3 14:7 17:3 
1 1 1:0.1 2:1 8:1 12:3 14:3 16:1 17:1 
0 1 10:1 12:6 14:5 16:1 17:3 
1 1 12:4 16:1 17:1 
1 1 8:1 12:3 14:2 17:1 
0 1 10:1 12:2 14:1 
0 1 12:1 14:2 16:3 17:3 
0 1 1:0.33333333 2:1 12:2 14:2 16:1 17:2 
0 1 12:3 14:4 17:3 
0 1 10:1 12:3 14:5 17:6 
0.3886873060003673 1 12:4 14:2 16:1 
1 1 1:0.090909091 2:1 3:1 8:1 12:4 14:3 16:1 17:2 
1 1 12:1 14:2 16:1 
1 1 12:2 14:3 16:3 17:4 
0.2088525937895022 1 12:3 14:2 16:3 17:1 
1 1 14:4 16:2 17:1 
1 1 1:0.071428571 2:1 3:1 12:2 14:4 16:1 17:4 
1 1 1:0.043478261 2:1 12:5 14:8 16:1 17:8 
0.0644791922219916 1 1:0.076923077 2:1 14:7 16:1 17:1 
0 1 10:1 14:5 16:2 17:1 
0.4035355337235453 0 4:1 8:1 12:3 14:5 16:1 17:2 
0 1 12:2 14:5 16:3 17:2 
0 1 12:2 14:3 16:1 17:1 
0 1 10:1 12:4 14:5 
1 1 1:0.076923077 2:1 8:1 10:1 12:4 14:5 17:2 
0 1 14:1 
0.5278326465099741 1 12:1 14:3 16:2 
1 1 8:1 12:2 14:1 17:1 
1 1 12:5 14:4 17:3 
0 0.1578463341158426 1:0.66666667 2:1 10:3 14:5 16:1 17:2 
1 1 8:2 12:2 14:4 16:1 17:1 
1 0.2816879590102889 3:1 8:2 12:6 13:1 14:8 16:3 17:2 
0 1 12:2 14:5 16:1 17:1 
0 1 12:1 14:2 16:3 17:1 
1 1 9:1 12:2 14:3 16:2 
1 0.88298894402353 8:1 10:1 12:3 13:3 14:7 16:1 
1 1 8:1 10:1 12:2 14:5 17:1 
0 1 3:1 12:4 14:1 16:1 17:3 
1 1 12:1 14:7 17:1 
0.5474389790804788 1 12:2 14:8 
0 1 12:2 14:4 17:1 
0 1 12:2 14:6 16:1 17:1 
0 1 14:4 16:1 17:6 
1 1 8:1 12:4 14:1 16:2 17:2 
1 1 3:1 12:1 14:3 16:1 
0 1 12:2 14:4 16:3 17:3 
0 1 3:1 12:2 14:4 17:1 
0 1 4:1 12:1 14:2 17:4 
0.8205467829171875 1 12:5 14:5 17:4 
0.2398358303311957 1 1:0.11111111 2:1 10:3 12:2 14:3 
0 1 10:1 14:2 16:1 17:2 
1 1 3:1 12:1 14:1 16:1 17:1 
1 0.2618811053657761 8:3 10:1 12:2 14:7 16:2 17:2 
1 0.950731802484567 1:0.083333333 2:1 6:1 8:1 12:7 14:1 
0 1 14:9 16:2 17:4 
1 1 9:1 12:4 14:4 16:1 17:1 
1 1 12:1 14:5 
1 1 12:2 14:8 16:1 
0 1 14:3 16:1 17:5 
1 0 1:0.083333333 2:1 12:1 14:2 16:5 17:3 
1 1 12:4 14:3 16:1 17:4 
1 1 12:5 14:4 16:1 17:2 
0.870490854789566 1 12:4 14:1 16:2 17:3 
0 1 9:1 12:1 14:6 16:4 17:2 
1 1 12:1 14:9 16:2 
0 1 3:1 12:3 14:3 16:1 17:2 
0 1 1:0.2 2:1 10:1 12:1 14:1 17:1 
0.02105749526243463 1 10:1 12:4 14:6 16:2 17:3 
0 0.6105740409760206 12:8 14:5 16:2 17:1 
0 1 1:0.1 2:1 12:1 14:2 16:3 17:3 
0.4897317816893502 1 9:1 10:2 12:3 14:2 16:1 17:9 
0 1 12:3 14:3 17:3 
1 1 8:1 12:4 14:2 16:3 17:5 
0 1 1:0.16666667 2:1 4:1 12:3 
0 1 6:1 12:2 14:3 16:1 17:1 
0.0658348125465865 0 12:2 14:8 16:2 17:8 
1 1 8:2 12:5 14:5 16:2 17:4 
0 1 10:1 12:5 14:3 16:1 17:2 
0 1 1:0.30769231 2:1 14:2 16:1 17:1 
1 1 5:1 12:2 14:8 16:1 
0.7075648647189601 0.986037005378404 8:1 9:1 12:2 14:5 16:4 17:2 
0 1 12:2 14:9 16:1 17:3 
0 1 1:0.11111111 2:1 6:1 12:2 14:1 16:1 17:1 
0.9982421721892449 0 4:1 9:1 12:1 14:3 17:1 
1 1 12:5 14:5 16:1 
0 1 16:1 17:1 
0 1 3:1 12:2 14:2 16:1 
0 1 14:5 16:5 17:3 
0 1 4:1 12:3 14:5 
0 1 1:0.16666667 2:1 12:3 14:1 16:1 
0 1 10:1 12:3 14:2 
0.6723602891332939 1 1:0.090909091 2:1 3:2 12:1 14:2 16:2 
0 1 1:0.083333333 2:1 3:1 12:2 14:3 16:3 
0 1 3:1 12:2 14:6 16:2 
0 1 1:0.083333333 2:1 4:1 12:1 14:7 16:2 
0 1 12:2 14:7 16:1 17:4 
0 1 3:1 12:2 14:1 16:2 
0.5064639091194105 1 1:0.2 2:1 12:3 
0 1 10:1 12:2 14:4 16:1 17:3 
0 1 3:1 12:3 14:2 16:1 
1 1 12:2 14:5 16:1 
0 1 1:0.125 2:1 12:1 14:3 16:2 
1 1 8:1 12:1 14:5 16:3 17:1 
0 1 12:2 14:4 16:1 
1 1 12:2 14:5 16:2 
1 1 1:0.18181818 2:1 8:1 12:4 14:3 17:2 
0.3991529700391555 1 10:1 12:2 14:12 16:1 
0 1 1:0.090909091 2:1 12:1 14:6 16:1 17:1 
1 1 8:1 9:1 12:4 14:3 16:2 17:1 
0 1 12:3 14:1 16:1 
0 1 10:1 12:4 14:2 17:4 
1 1 12:1 14:2 16:1 
1 1 8:1 12:4 14:1 17:1 
0 1 4:1 14:3 16:1 
0.1460226949767535 0 1:0.076923077 2:1 10:3 12:2 14:6 16:2 17:1 
0.1142627725240001 1 12:1 14:3 16:1 17:3 
1 1 1:0.1 2:1 14:4 16:1 17:2 
0 1 1:0.42857143 2:1 12:1 14:2 16:1 17:2 
1 1 1:0.047619048 2:1 3:1 12:3 14:6 16:4 17:6 
0 1 10:1 12:2 14:6 16:2 
0.3239862121589943 1 12:1 14:3 16:1 17:3 
0 1 3:1 12:2 14:1 16:1 
1 1 14:7 16:2 17:1 
1 1 8:1 12:3 14:1 17:1 
1 1 12:4 14:5 16:1 17:6 
1 1 8:1 10:1 12:2 14:5 17:1 
1 1 8:1 12:4 14:4 16:2 17:2 
0.5299648984934405 1 4:1 14:9 16:3 17:3 
0 1 3:2 12:1 14:1 
1 1 1:0.125 2:1 12:2 14:1 16:1 17:1 
1 1 1:0.076923077 2:1 8:2 12:3 14:2 16:1 17:2 
0.1205571156003901 1 1:0.15384615 2:1 12:1 14:3 16:1 17:5 
0 1 12:1 14:5 16:3 
1 1 9:2 12:1 14:2 16:1 17:1 
0 1 3:1 12:2 14:3 16:2 17:3 
0 1 3:1 10:1 12:3 14:3 17:4 
0 1 10:1 14:2 16:1 17:3 
1 1 1:0.066666667 2:1 8:1 10:1 12:3 14:7 16:1 17:2 
0 1 12:2 14:6 16:1 17:1 
0.6294819298197969 1 12:5 14:5 16:1 17:1 
0.1368316622860884 1 12:1 14:1 17:1 
0 1 12:3 14:2 16:1 17:3 
0.989151448484878 1 12:4 14:2 16:1 
1 1 8:1 12:1 14:2 17:3 
0 1 12:2 14:3 17:2 
0.1942255029243617 0 1:0.1 2:1 10:3 12:3 14:3 16:2 
0.5027377607190895 1 12:6 14:5 16:4 17:6 
1 1 12:3 14:5 16:1 17:5 
0.02920191638699291 1 12:1 14:5 16:1 
1 1 8:1 12:4 14:6 16:1 17:6 
0 1 14:2 16:1 
0 1 1:0.13333333 2:1 12:5 14:7 16:2 
1 1 3:1 12:2 14:1 16:2 17:1 
0 1 1:0.3 2:1 10:1 12:1 14:6 
0.07838864786545444 1 12:1 14:3 16:2 
0.9643536695580434 1 12:1 14:4 
0 1 1:0.083333333 2:1 4:1 12:4 14:5 16:1 
1 1 1:0.055555556 2:1 3:1 12:7 14:2 17:1 
0 1 12:3 14:1 17:2 
0 1 3:1 14:7 16:2 17:1 
0 1 10:1 12:2 14:2 16:2 
0 1 10:1 12:3 14:2 16:1 17:3 
0 1 12:2 14:3 17:1 
0 1 1:0.125 2:1 12:2 14:4 16:1 
0 1 4:1 14:1 16:1 
1 1 8:1 12:4 14:1 17:3 
0 1 1:0.16666667 2:1 12:1 14:3 
0.7669636244441511 1 3:2 12:2 14:6 16:2 17:1 
0 1 1:0.090909091 2:1 3:1 14:7 16:1 17:1 
0.2245773892300884 1 3:3 12:1 14:2 
1 1 8:1 12:2 14:7 16:4 
1 1 8:1 12:3 14:6 17:1 
1 1 12:4 14:6 
1 1 3:2 14:1 
0 1 10:1 14:7 16:1 
1 1 1:0.066666667 2:1 12:5 14:6 16:1 
0 1 12:4 14:6 16:2 17:7 
0 1 1:0.33333333 2:1 3:1 4:1 12:3 14:2 
0 1 10:1 12:1 14:3 16:2 
0 1 10:1 12:3 14:1 16:1 17:2 
0 1 4:1 12:3 14:8 16:2 17:3 
0.3420501806282407 1 14:3 16:2 
0 1 12:3 14:3 16:1 
0 1 1:0.125 2:1 12:1 14:4 16:2 
0 1 1:0.22222222 2:1 3:1 12:2 14:2 17:3 
0.03767766940978189 1 1:0.076923077 2:1 10:1 12:1 14:4 16:2 17:4 
1 1 1:0.1 2:1 12:3 14:1 17:5 
0.9437807262676966 1 1:0.083333333 2:1 12:1 14:4 16:2 17:4 
1 1 8:1 9:1 12:2 14:7 16:2 
1 1 14:4 17:3 
0.4712834785890503 0 12:1 14:3 16:4 17:3 
0 0.2077618435523586 10:3 12:7 14:4 16:1 17:1 
1 1 1:0.55555556 2:1 8:1 12:2 14:3 16:1 17:2 
0 1 12:2 14:6 16:1 17:5 
0 1 12:1 14:4 16:2 17:3 
0 1 1:0.11111111 2:1 12:2 14:3 17:3 
1 1 3:1 12:2 14:3 16:2 17:4 
0 1 12:1 14:3 
0 1 1:0.052631579 2:1 12:3 14:8 16:2 17:1 
0.2435102621865135 1 3:1 10:1 12:3 14:7 16:1 17:1 
0 1 12:3 14:4 16:1 17:2 
1 1 3:1 12:2 14:5 17:3 
1 1 1:0.15384615 2:1 3:1 12:1 14:1 16:1 17:4 
1 1 10:1 12:1 14:4 17:2 
0.853931080925515 1 10:1 14:2 17:4 
1 0 10:3 12:2 14:3 16:1 17:1 
0 1 12:5 14:5 16:1 17:3 
0 1 14:4 16:2 17:4 
0 1 1:0.11111111 2:1 12:1 14:6 16:1 
1 1 3:3 14:2 16:1 17:3 
0.01023240494088963 1 10:1 14:5 17:3 
0 1 1:0.083333333 2:1 12:1 14:4 16:2 17:5 
0 1 10:1 12:2 14:3 
0 1 3:1 14:2 16:1 
0 1 12:5 14:5 16:2 17:1 
0 1 10:1 12:3 14:1 
0.2454798686964959 1 12:3 14:4 
0 1 1:0.1 2:1 12:2 14:2 16:1 17:1 
0 1 1:0.14285714 2:1 4:1 12:3 14:6 16:1 
0 1 10:1 12:5 14:5 16:1 
0 1 4:1 9:1 12:1 14:2 17:1 
0 1 12:1 14:4 16:3 17:4 
1 1 1:0.16666667 2:1 12:3 14:2 17:1 
0 1 12:3 14:3 16:3 17:3 
1 1 1:0.1 2:1 12:3 14:4 16:1 17:1 
0 1 10:1 12:3 14:5 17:4 
1 0 8:1 10:1 12:2 14:6 16:2 17:1 
0 1 12:3 14:2 16:1 17:2 
1 1 12:2 14:4 16:1 17:3 
1 1 1:0.090909091 2:1 12:4 14:5 
0 1 10:1 12:4 14:4 16:1 17:1 
0 1 1:0.2 2:1 3:1 12:1 14:5 
1 1 1:0.043478261 2:1 3:1 12:3 14:9 17:9 
0 1 12:2 14:4 
0 1 1:0.2 2:1 12:1 14:2 16:1 
1 1 1:0.071428571 2:1 12:2 14:4 16:2 17:4 
0.4100590660162987 0 10:3 14:3 16:2 17:3 
0 1 12:2 14:4 17:1 
0.3576722075131601 1 10:1 12:1 14:5 17:7 
0 1 1:0.1 2:1 12:3 14:1 16:2 17:1 
0 1 1:0.15384615 2:1 12:1 14:3 16:2 
0 1 10:1 12:3 14:3 16:1 17:1 
0 1 1:0.125 2:1 3:1 12:4 14:1 16:1 
1 0 6:1 8:1 10:1 12:1 14:7 16:1 17:3 
1 1 12:4 14:3 16:2 
0 1 3:1 12:2 14:2 17:2 
1 1 3:1 12:4 14:3 17:2 
0 1 10:1 12:4 14:2 17:1 
0 1 3:1 14:7 
0 1 1:0.1 2:1 10:1 12:4 16:2 
0 1 12:4 14:6 16:1 17:1 
0 1 1:0.090909091 2:1 10:1 12:2 14:6 16:1 
0.5116356980698374 1 14:4 16:4 17:3 
0 1 10:1 12:3 14:6 17:1 
0.5476087857031161 0 10:1 12:4 14:5 16:3 
1 1 12:5 14:4 16:2 
1 1 9:2 12:1 14:3 16:1 
0 1 12:2 14:5 16:3 
0 1 4:1 12:5 14:3 16:1 
1 1 12:1 14:3 16:2 17:1 
0 1 3:2 14:3 16:3 17:4 
1 1 12:3 14:5 16:1 17:5 
1 1 8:1 12:4 14:5 16:1 17:2 
0 1 8:1 12:1 14:3 
0 1 1:0.090909091 2:1 12:2 14:2 16:2 17:4 
0 1 3:1 10:1 12:7 14:4 17:1 
0.9930088702285946 1 8:1 10:1 12:2 14:4 17:1 
0 1 3:2 12:1 14:6 16:1 17:4 
0 1 12:3 14:11 17:6 
0.7427294764263428 1 12:2 14:1 16:1 17:1 
1 1 12:2 14:4 16:3 17:5 
0 1 12:2 14:6 16:2 17:4 
1 1 1:0.2 2:1 12:3 14:3 16:1 17:1 
0.1495623192878026 1 3:1 12:2 14:1 17:4 
0 1 1:0.058823529 2:1 12:4 13:1 14:3 16:3 17:4 
0.9454477986829209 1 12:4 14:6 16:1 
0 1 12:2 14:1 
1 1 9:1 12:2 14:5 16:2 17:3 
1 0 12:5 14:4 16:4 17:1 
0.9547063511936821 1 1:0.076923077 2:1 12:4 14:2 16:2 17:4 
0 1 4:1 12:1 14:6 16:1 17:4 
1 1 9:1 12:3 14:4 17:4 
1 1 12:2 14:4 16:2 
0 1 12:2 14:3 
1 1 8:1 12:4 14:3 17:2 
0 1 3:1 10:1 12:2 16:2 
0 1 10:1 12:2 14:5 17:2 
1 1 9:2 12:2 14:3 16:1 
1 1 8:1 12:4 14:4 16:2 17:2 
0.3285670848358999 1 12:2 14:3 16:2 
0 1 1:0.14285714 2:1 12:2 14:3 16:1 
0 1 10:1 12:4 14:4 16:1 17:4 
0.2814410228060548 1 1:0.2 2:1 14:1 16:2 
1 1 3:1 12:4 14:7 16:1 
1 1 3:2 8:1 12:1 14:7 16:1 
0 1 1:0.1 2:1 10:1 12:1 14:3 16:2 
0 1 10:1 12:2 14:2 16:1 
0 1 12:3 14:3 16:1 17:1 
1 1 12:4 14:4 16:1 
1 1 12:3 14:5 16:2 
1 1 1:0.090909091 2:1 8:1 12:2 14:4 17:4 
1 1 8:1 9:1 12:3 14:8 16:2 17:2 
1 1 14:3 16:2 
0 1 3:1 12:2 14:5 16:2 
0.1986757733528156 1 1:0.083333333 2:1 3:1 12:2 14:4 16:2 
0 1 1:0.125 2:1 3:2 12:2 14:2 
1 1 6:1 9:1 12:4 14:3 16:1 
1 1 12:2 14:2 16:1 
0 1 1:0.076923077 2:1 12:1 14:3 16:4 17:3 
1 1 12:2 14:5 16:1 17:2 
0 1 14:1 16:2 17:1 
0.6375566357854733 0.8456092720775299 9:1 12:5 13:1 14:5 16:4 
1 1 8:1 12:1 14:1 16:2 17:2 
0 1 4:1 12:2 14:3 17:4 
0 1 3:1 12:2 14:3 
1 1 1:0.11111111 2:1 10:1 12:4 14:4 
0.1628590908569475 1 1:0.1 2:1 12:3 14:3 16:1 
0 1 10:1 12:4 14:2 16:2 17:3 
0 1 12:3 14:1 17:2 
0 1 4:1 9:1 12:1 14:2 17:1 
0 1 10:1 12:2 14:4 16:1 17:1 
1 0.4286871122559727 8:3 10:1 12:4 14:2 16:3 17:5 
0.2295078852499277 1 1:0.071428571 2:1 3:1 12:1 14:7 16:1 17:3 
1 1 8:1 14:8 16:2 17:5 
0.07539737065947194 1 9:1 12:4 14:7 16:2 17:8 
0 1 1:0.1 2:1 10:1 12:3 14:4 17:1 
0 1 12:5 14:4 16:3 17:3 
1 1 1:0.2 2:1 3:1 12:6 14:1 17:1 
1 0 1:0.071428571 2:1 4:1 8:1 12:5 14:3 17:2 
0.1833064124322024 1 3:6 12:3 14:1 
0 1 3:1 12:5 14:6 16:2 17:1 
0.353725664687865 1 12:2 14:3 16:1 17:1 
0 1 3:3 12:1 14:1 
1 1 8:1 9:1 12:7 14:1 17:3 
0 1 1:0.066666667 2:1 10:1 12:2 14:2 16:1 17:4 
0.1887395607986427 1 4:1 8:1 12:9 14:6 17:1 
0 1 10:1 12:3 14:8 16:2 
1 1 12:5 14:5 16:1 
0 1 12:1 16:2 17:2 
1 1 8:1 12:3 14:6 17:1 
0.07345744995773826 1 1:0.125 2:1 3:1 12:1 14:1 15:1 16:3 17:1 
0 1 10:1 12:1 14:1 
0 1 3:2 12:1 14:4 16:1 
0 1 4:1 14:4 16:1 
1 1 12:2 14:6 17:5 
0 1 12:3 14:4 16:3 17:3 
0 1 3:1 12:1 14:3 17:1 
0 0.9251821172585621 1:0.29411765 2:1 4:1 12:2 14:6 16:2 17:4 
0 1 4:1 12:3 14:5 
0 1 1:0.14285714 2:1 10:3 12:2 14:6 16:1 
0.9212306835741242 1 12:2 14:2 
1 1 12:1 14:6 16:1 17:1 
0 1 12:1 14:5 16:2 17:5 
0.01989281483978763 1 1:0.076923077 2:1 3:2 12:5 14:3 16:1 
0.08604916411063111 1 3:1 12:1 14:2 17:1 
0 1 8:1 10:1 14:4 16:1 17:1 
0 1 12:4 14:3 16:2 17:4 
1 1 12:4 14:4 16:2 17:5 
0 1 1:0.0625 2:1 10:1 12:2 14:6 16:2 17:4 
0.6521139942370013 1 3:1 14:7 17:1 
0 1 1:0.090909091 2:1 10:1 14:6 16:1 
0 1 10:1 12:2 14:1 16:2 
1 1 12:4 14:3 16:2 17:1 
0 1 1:0.5 2:1 12:1 14:4 
0 1 12:2 14:3 17:1 
1 1 8:1 12:2 14:4 17:4 
1 1 12:5 14:3 17:4 
0 1 3:1 12:2 14:3 17:1 
1 0 6:1 8:2 10:1 14:3 17:2 
0 1 3:2 12:1 14:3 
0.3570152132953506 1 1:0.2 2:1 12:1 14:1 
1 0 10:1 12:5 14:8 16:3 17:1 
0 1 10:1 12:2 14:4 16:1 17:1 
0 1 1:0.14285714 2:1 12:1 14:4 16:1 
0 1 4:1 12:1 14:1 17:3 
1 1 12:5 14:1 17:2 
1 0 1:0.1 2:1 4:1 8:1 12:2 14:2 17:3 
0.8986222881835155 0.831505293294803 10:3 12:2 14:3 16:1 
1 0 8:1 12:3 14:4 16:3 17:2 
1 1 1:0.090909091 2:1 8:1 12:4 14:3 16:2 17:1 
0 1 10:1 12:5 14:8 16:2 
0 1 1:0.25 2:1 10:2 12:4 14:1 
0 1 12:2 14:3 17:1 
1 1 1:0.071428571 2:1 12:3 14:5 16:2 17:3 
1 1 1:0.25 2:1 3:1 12:1 14:1 
1 1 1:0.2 2:1 12:4 14:3 16:2 
1 1 12:3 14:8 16:1 
0 1 10:1 14:4 17:1 
1 1 1:0.14285714 2:1 12:1 14:2 16:1 17:2 
0 1 12:1 14:6 16:2 
0.0004626229457486333 1 10:1 12:2 14:5 17:2 
0 1 10:1 14:1 17:1 
1 1 12:5 14:3 16:1 17:3 
0 1 1:0.090909091 2:1 3:1 12:3 14:2 16:1 17:1 
0.01539410405671781 1 10:2 12:2 14:3 
1 1 12:2 14:4 16:1 17:5 
0 1 10:1 12:5 14:4 16:1 17:3 
0 1 3:1 10:1 12:2 14:6 16:1 17:3 
0 1 12:2 14:7 16:1 
0 1 12:5 14:5 16:1 17:3 
1 1 12:2 14:2 17:5 
0 1 3:1 12:1 14:4 
1 1 1:0.090909091 2:1 8:3 10:1 12:4 14:8 17:1 
0.3377718377098059 1 1:0.1875 2:1 12:5 14:6 17:3 
0 1 10:1 12:4 14:3 16:2 
1 1 1:0.04 2:1 12:5 14:10 16:2 17:4 
1 1 1:0.076923077 2:1 12:2 14:3 16:2 17:4 
0 1 12:1 14:1 
1 1 9:1 14:2 
0 1 4:1 12:5 14:3 16:1 17:1 
0 1 3:1 12:4 14:2 17:4 
1 1 8:1 12:2 14:3 16:2 17:1 
0 1 10:1 12:5 14:5 16:1 
0.4805501946533481 1 1:0.066666667 2:1 10:2 12:3 14:4 17:7 
0 1 3:1 12:4 14:5 16:1 
0 1 12:3 14:2 16:2 17:1 
0.4850247007551685 1 1:0.066666667 2:1 14:5 16:2 17:6 
0 1 3:1 12:4 14:2 17:2 
0 1 10:1 12:1 14:7 16:1 17:1 
0 1 3:1 4:1 14:3 
0.02030970627077161 1 12:1 14:8 16:2 17:3 
0 1 10:1 12:3 14:3 16:1 
0 1 10:1 12:1 14:3 17:1 
1 1 9:1 12:1 14:2 16:1 
1 1 8:1 12:6 14:2 16:2 17:1 
0 1 12:3 14:7 16:2 17:8 
0.9208380778454286 1 12:2 14:1 16:1 17:1 
1 1 1:0.066666667 2:1 12:8 14:3 17:1 
1 0 1:0.23076923 2:1 3:1 8:1 12:7 14:1 16:1 17:1 
1 1 1:0.076923077 2:1 3:1 12:6 14:1 16:3 17:1 
1 1 8:1 12:3 13:1 14:2 16:2 17:2 
0 1 12:2 14:7 16:1 
0 1 1:0.33333333 2:1 4:1 12:5 14:1 16:1 
1 1 12:1 14:6 16:1 17:7 
1 1 12:2 14:2 16:1 17:2 
0.8784896149621959 1 12:1 14:1 17:1 
0 1 1:0.076923077 2:1 12:3 14:4 16:2 17:3 
0 1 1:0.2 2:1 10:3 14:2 
0 1 12:2 14:5 16:1 17:1 
1 1 12:2 14:2 16:1 17:1 
0 1 10:1 13:1 14:5 16:1 17:4 
0 1 1:0.14285714 2:1 14:6 
1 1 12:2 14:1 17:1 
1 1 1:0.083333333 2:1 12:1 14:4 16:2 17:4 
1 0 8:1 10:1 12:2 14:5 16:2 17:1 
0 1 3:1 12:3 14:2 17:1 
0 1 10:1 12:1 13:1 14:9 16:2 
0 1 12:1 14:4 16:1 17:4 
1 1 8:1 12:4 14:3 17:3 
1 0.1545069672506316 8:1 10:1 12:4 14:2 16:2 17:4 
1 1 1:0.11111111 2:1 12:4 14:8 16:1 17:5 
0.9619191456657473 1 12:1 14:2 16:2 
1 1 8:1 12:4 14:7 16:2 17:1 
0 1 1:0.066666667 2:1 10:1 12:3 14:7 16:1 17:3 
1 1 12:2 14:4 16:2 
0 1 12:3 14:5 17:1 
0 1 3:1 12:2 14:3 16:2 
0 1 10:1 12:1 14:2 17:1 
1 1 12:4 14:2 16:2 17:1 
0 1 12:2 14:4 16:3 
0 1 12:3 14:4 16:1 17:3 
1 1 12:1 14:4 17:3 
1 1 8:1 10:1 12:3 17:2 
0.060703618001984 1 3:1 12:1 14:2 17:1 
1 1 12:4 14:2 17:2 
0 1 12:2 16:1 
1 0 4:1 8:2 12:6 14:6 16:3 17:3 
1 1 12:5 14:2 17:5 
0 1 3:1 12:2 14:3 
1 1 8:1 10:1 12:5 14:6 17:2 
0 1 10:1 12:1 14:2 16:2 
0 1 10:1 12:3 14:1 
0 1 10:1 12:1 14:9 
1 1 8:1 12:4 14:5 16:1 17:3 
1 1 12:4 14:5 16:3 
0 1 3:2 12:4 14:4 16:1 
0 1 12:2 14:5 16:2 17:4 
0 1 1:0.055555556 2:1 10:3 12:5 14:4 16:2 17:4 
0.4886684694195227 1 14:3 16:1 
0.1827725310610411 1 12:5 14:5 16:1 17:1 
1 1 3:1 12:2 14:7 16:1 17:3 
1 1 12:2 14:3 16:2 17:2 
1 1 12:3 14:3 
0.1163844672024389 1 12:5 14:4 17:5 
1 1 12:5 14:4 16:1 
0 1 10:1 12:3 14:6 
1 1 1:0.33333333 2:1 5:1 8:1 10:1 12:2 14:6 17:3 
1 1 8:2 12:5 14:3 16:1 17:3 
0 1 12:2 14:5 
1 1 12:1 14:6 16:1 17:1 
0 1 12:2 14:1 16:1 
0 1 12:2 14:4 
1 1 12:1 14:2 17:3 
0.3973709099235174 1 3:3 12:4 14:1 16:3 
0 1 10:1 12:7 14:1 17:1 
0.6061347075350008 1 12:4 14:5 16:1 17:3 
0 1 1:0.2 2:1 10:1 12:2 14:3 16:1 17:3 
0 1 1:0.44444444 2:1 12:1 14:4 16:2 
1 1 8:1 12:4 14:4 16:1 17:1 
1 1 12:1 14:4 16:2 17:2 
0 1 12:1 14:1 16:1 
0 1 1:0.1 2:1 3:1 12:3 14:3 16:3 
1 1 12:1 14:3 16:2 17:1 
0 1 12:3 14:2 16:1 17:3 
1 1 12:4 14:2 16:1 
1 1 12:1 14:4 16:1 
0 1 1:0.083333333 2:1 12:1 14:3 16:2 17:5 
0 1 10:1 12:2 14:1 16:1 
0 1 10:1 12:1 14:4 
0 1 4:1 12:4 14:3 16:1 
0 1 12:1 14:6 16:1 17:3 
0 1 1:0.125 2:1 10:1 12:2 14:2 17:3 
1 0 8:2 10:1 12:4 14:1 16:1 17:2 
1 1 12:3 14:5 
1 1 12:1 14:3 16:2 17:1 
0 0.2999392396454329 1:0.21428571 2:1 8:1 10:1 12:1 14:4 16:2 
0.2170293822767874 0 10:2 12:2 14:4 16:1 17:2 
0 1 14:4 16:1 17:1 
0 1 12:3 14:4 16:1 17:1 
1 1 8:1 12:2 14:3 17:1 
1 1 12:5 14:2 
0.2202628808256096 1 12:3 14:2 17:1 
1 1 3:2 8:1 12:5 17:4 
1 0 8:1 10:2 12:1 14:7 16:2 17:2 
0.07475593158399252 1 3:1 12:5 14:1 
0 1 3:1 12:3 14:3 16:3 
1 1 8:1 12:4 14:2 16:1 17:1 
1 1 12:2 14:5 16:1 
0 1 12:3 14:4 17:2 
0 1 1:0.30769231 2:1 3:5 12:3 14:2 16:1 
0 1 12:2 14:7 
0 1 3:1 12:3 14:3 17:1 
0.2846787663678224 1 1:0.11111111 2:1 12:3 14:1 16:4 
0 1 10:1 14:5 
0 1 12:1 14:4 16:2 
0 1 3:1 12:1 14:5 16:3 
1 1 8:1 10:1 12:4 14:8 16:1 17:4 
1 1 12:1 14:2 16:1 
0.4305848131513569 1 3:1 14:3 
0 1 10:1 12:3 14:2 
1 1 12:4 14:2 
0 1 3:1 12:1 14:5 16:2 17:1 
0 1 1:0.23076923 2:1 10:1 12:2 14:5 17:3 
0 1 1:0.28571429 2:1 12:1 14:3 16:2 
0 1 12:2 14:5 16:3 
0 1 12:1 14:6 16:1 
0 1 3:1 12:2 14:2 16:1 17:3 
1 1 12:4 14:5 16:1 17:3 
0.7354054312566635 1 3:1 12:2 14:2 16:1 17:4 
0 1 1:0.33333333 2:1 3:2 12:2 16:1 
0 1 3:1 12:3 14:1 16:1 17:1 
0 1 12:2 14:1 16:1 
1 1 12:1 14:4 
0 1 12:3 14:3 16:1 17:1 
0.351687751141851 1 3:5 14:4 16:1 
0.9804302089739078 1 12:1 14:4 
1 1 12:2 14:6 16:1 
1 1 1:0.0625 2:1 3:2 8:1 12:6 14:3 16:1 17:2 
0.4509560708523564 1 10:1 12:2 
0.9330454453611583 1 12:3 14:3 17:1 
0 1 12:1 14:4 16:2 17:4 
0 1 10:1 12:1 14:5 16:1 17:3 
1 1 12:1 14:4 16:1 
0 1 3:1 14:3 16:1 
1 1 1:0.18181818 2:1 3:2 8:1 12:3 14:4 16:1 
0 1 4:1 12:4 
1 1 8:1 9:1 12:3 14:3 16:2 17:1 
1 1 12:1 14:8 16:1 17:3 
0.04413000232633867 1 12:1 14:3 16:2 
0 1 10:1 12:2 14:9 16:1 17:1 
0.4966414303730738 1 12:2 14:6 16:2 17:1 
0 1 10:1 12:3 14:3 
0.345462074865004 1 12:1 14:3 16:1 17:3 
0.607894892676946 1 1:0.15384615 2:1 3:1 12:2 13:1 14:5 17:4 
0 1 1:0.1 2:1 3:1 12:1 14:3 16:4 
1 1 10:3 12:3 14:5 17:1 
0.07780830502137448 1 14:2 16:3 17:1 
0 1 10:1 12:2 14:8 16:2 
0 1 10:1 12:2 14:6 17:3 
0 1 3:1 12:3 14:2 16:1 
0 1 4:1 9:1 12:1 14:1 16:1 
1 1 8:1 12:3 14:4 16:2 17:2 
1 1 8:1 12:2 14:3 16:3 17:4 
1 1 8:2 12:3 14:5 16:1 17:1 
1 1 1:0.11111111 2:1 12:2 14:5 
1 1 8:1 12:3 14:5 17:7 
1 1 12:6 14:2 16:1 17:3 
0.2196603989525385 0 8:1 10:2 12:1 14:6 16:1 17:1 
0 1 3:1 12:4 14:6 16:2 
0 1 10:1 12:6 14:4 16:1 17:3 
0 1 12:1 14:8 16:2 17:5 
1 1 14:3 
1 0 10:3 12:3 14:4 16:1 
1 1 1:0.27272727 2:1 8:1 12:4 14:3 17:1 
1 1 8:1 12:5 14:2 16:1 17:1 
1 0.6178632710186477 8:1 12:1 14:2 16:4 17:7 
1 1 12:4 14:2 16:1 
1 1 12:2 14:4 16:1 17:2 
0 1 4:1 12:1 14:7 16:1 
0 1 4:1 14:5 16:1 
0 1 3:1 12:1 14:4 
0.007998960163884869 1 12:1 14:3 
1 1 8:1 12:2 14:5 16:2 17:1 
0 1 12:2 14:3 
0.668183748206182 1 1:0.125 2:1 3:2 12:3 14:2 17:1 
0 1 10:1 12:2 14:5 16:2 
0 1 10:2 12:1 14:2 
0 1 12:2 14:7 16:1 
1 0 1:0.071428571 2:1 8:1 10:1 12:4 14:5 16:2 17:1 
0.1615600704757433 1 12:2 14:6 
1 1 1:0.076923077 2:1 12:5 14:3 16:1 17:2 
0 1 10:1 12:1 14:2 16:2 
0 1 14:5 16:1 17:1 
1 1 8:1 10:1 12:3 14:3 17:4 
0.5773565041017348 1 1:0.076923077 2:1 3:1 12:2 14:3 16:1 17:3 
0.1546418889384677 1 8:1 12:2 14:3 16:3 17:1 
0.2055807627451586 0 1:0.33333333 2:1 10:3 12:2 14:3 16:1 17:1 
0 1 1:0.2 2:1 14:7 16:2 
1 1 1:0.090909091 2:1 3:1 12:1 14:4 16:3 17:1 
0 1 11:2 14:4 
0 1 3:1 12:5 13:1 14:1 
0.4178152860271098 1 3:1 12:3 14:4 16:4 
0 1 4:1 12:5 14:6 
0 1 12:2 14:4 17:1 
1 1 3:1 12:4 14:3 17:1 
0 1 12:1 14:2 17:1 
0 1 12:2 14:2 17:1 
0 1 1:0.11111111 2:1 8:1 12:1 14:4 16:3 17:1 
1 1 3:1 12:1 14:4 17:3 
0.1630342287399097 1 3:3 12:2 14:5 16:1 
0.9784717965419023 1 1:0.375 2:1 12:4 14:9 
1 1 8:2 12:1 14:8 16:1 17:6 
1 1 8:1 12:2 14:8 16:1 17:6 
0 1 12:1 14:2 16:3 
1 1 8:1 12:1 14:2 16:1 17:2 
1 1 4:1 5:1 12:4 14:5 16:1 
1 1 12:4 14:2 16:1 
0 1 10:1 12:1 13:1 14:3 16:5 
0 1 4:1 12:3 14:1 16:1 17:4 
0 1 10:1 12:4 14:5 16:1 17:3 
1 1 3:2 8:1 12:5 17:4 
0 1 1:0.11111111 2:1 3:1 14:6 16:1 17:1 
0 1 3:1 14:1 16:1 
1 1 1:0.35714286 2:1 12:2 14:4 16:1 17:4 
0 1 1:0.11111111 2:1 10:2 12:4 14:1 
1 0.3803010742471822 12:2 14:8 16:2 17:9 
1 1 8:1 12:2 14:1 16:1 17:1 
0 1 12:3 14:4 16:2 17:1 
1 1 8:1 10:1 12:4 14:2 17:1 
0 1 12:7 14:4 16:1 17:1 
1 1 1:0.2 2:1 12:3 14:2 
0 1 1:0.090909091 2:1 6:1 12:4 14:2 17:1 
0 1 1:0.16666667 2:1 4:1 12:3 
1 1 8:1 14:5 16:1 17:2 
0 1 10:1 12:2 14:3 
0 1 10:1 12:2 14:3 16:1 17:4 
1 1 1:0.14285714 2:1 3:2 12:2 14:3 
0 1 12:3 14:4 17:3 
0.3098083228023615 1 12:2 14:5 16:2 17:1 
1 1 8:1 12:6 14:5 16:1 17:1 
0.8414253538261184 1 1:0.25 2:1 12:4 14:2 16:1 
1 1 3:2 8:2 12:5 14:5 17:3 
0 1 12:4 14:7 16:2 17:1 
0 1 1:0.28571429 2:1 12:2 14:2 16:2 
0 1 3:1 12:1 14:2 16:1 
1 1 8:1 12:3 14:3 17:2 
0 1 12:3 14:1 16:1 
1 1 1:0.11111111 2:1 8:1 12:2 14:3 17:1 
1 1 3:1 12:3 14:5 16:1 17:3 
1 0 10:2 12:1 14:2 16:1 17:1 
1 1 12:2 14:2 16:1 
0.2304402867238139 1 12:2 14:2 16:2 
0 1 1:0.11111111 2:1 14:5 16:2 
0 1 3:1 14:2 16:1 
0 1 1:0.066666667 2:1 12:1 14:8 16:1 17:4 
1 1 9:1 12:1 16:1 
0 1 10:1 12:3 14:7 
0 1 1:0.1 2:1 3:2 12:3 14:3 16:1 17:1 
0.7846519097470838 1 3:1 12:2 14:4 16:2 
0 1 12:2 14:3 16:2 17:3 
0.7740283996094279 1 3:1 12:6 14:1 17:2 
0.2384496478657841 1 1:0.30769231 2:1 3:7 12:1 14:2 16:1 
1 1 12:2 16:1 17:4 
0 1 10:1 12:1 14:2 
0.04041634130353846 1 1:0.076923077 2:1 12:3 14:4 16:1 17:3 
1 1 12:5 14:3 17:5 
1 1 12:1 14:1 17:1 
0 1 1:0.11111111 2:1 3:2 12:3 14:2 16:1 17:1 
0 1 3:1 12:1 14:3 16:2 
0 1 3:1 12:3 14:2 17:1 
0 0.211792828795375 1:0.11111111 2:1 10:2 12:5 14:1 17:1 
1 1 12:4 14:5 16:2 
1 1 12:2 14:7 17:2 
0 1 1:0.28571429 2:1 10:1 12:4 14:5 16:2 
0 1 10:1 12:2 14:4 16:1 
1 1 4:1 8:1 12:4 14:3 16:2 17:8 
0 1 12:5 14:4 16:3 17:2 
0 1 10:1 12:4 14:3 16:1 17:4 
0.5218253004629227 1 12:2 14:2 16:1 17:3 
0 1 12:1 14:1 16:1 
1 1 12:6 14:6 
1 1 8:1 12:3 14:4 16:2 17:1 
1 1 12:2 14:5 16:2 
0 1 1:0.066666667 2:1 12:7 14:4 16:1 17:3 
0 1 3:1 12:1 14:4 16:1 
0 1 4:1 14:3 
0 1 12:2 13:1 14:3 17:7 
1 1 8:1 10:2 12:2 14:4 17:6 
0 1 12:3 14:2 17:1 
0 1 12:3 14:2 16:2 
0 1 3:2 12:3 14:2 16:1 
1 1 3:2 12:2 14:7 16:1 
0 1 10:1 12:2 14:6 16:3 
0 1 1:0.14285714 2:1 4:1 14:3 
1 1 8:1 10:1 12:2 16:1 
1 1 8:1 12:3 14:3 17:3 
0.01163065599438899 1 14:4 16:1 
1 1 12:2 14:3 16:1 17:1 
0.3279758414147261 1 1:0.25 2:1 10:3 14:1 17:1 
1 1 12:1 14:3 16:1 17:3 
1 1 5:1 6:1 8:1 12:1 14:5 16:2 17:2 
1 1 12:4 14:4 16:1 
0 1 1:0.066666667 2:1 8:1 9:3 12:3 14:3 16:4 
1 1 12:1 14:2 16:1 
0 1 12:1 14:3 17:2 
0 1 12:2 14:2 16:4 
1 1 3:1 8:1 12:1 14:3 16:1 17:3 
0 1 12:1 14:4 16:2 17:6 
0 1 4:1 12:3 14:4 17:5 
0 1 3:1 14:3 16:2 17:4 
1 1 8:1 9:1 12:3 14:4 16:2 17:3 
1 1 8:1 12:2 14:3 16:1 17:2 
0 1 12:1 16:1 
0 1 14:6 16:2 
0 1 12:2 14:3 
1 1 1:0.28571429 2:1 8:1 12:4 14:6 16:2 17:1 
0 1 1:0.071428571 2:1 10:1 12:4 14:8 
0.8461591537988767 1 12:2 14:8 17:1 
1 1 12:4 14:4 16:1 
1 1 12:5 14:4 16:1 
1 1 12:1 14:5 16:1 17:2 
0.2827588732511838 1 12:2 14:4 16:1 
0 1 10:1 12:2 14:6 16:3 17:1 
1 0 8:1 12:3 14:2 16:3 17:2 
0 1 12:3 14:2 16:1 17:1 
0 1 4:1 12:6 14:2 
0 1 12:5 14:5 16:2 17:3 
1 1 8:1 12:1 14:3 16:1 17:1 
1 1 12:5 14:2 16:1 
0 1 10:1 12:1 14:9 16:2 
0.4134805971809858 1 1:0.090909091 2:1 10:1 14:4 16:1 17:3 
1 1 12:4 14:1 17:1 
0 1 3:2 14:5 16:1 
0 1 3:1 12:2 14:3 16:2 
0 1 10:1 12:2 14:6 
1 1 12:5 14:6 17:1 
1 1 3:1 12:2 14:6 16:3 17:2 
1 1 8:1 9:1 12:1 14:3 16:1 17:4 
0 1 1:0.125 2:1 3:2 10:1 12:1 14:8 16:2 
1 1 12:6 14:4 17:2 
1 1 8:1 9:1 12:3 14:1 16:1 17:4 
1 1 8:1 12:1 14:3 16:1 17:7 
0 1 10:1 12:3 14:3 16:1 17:4 
0 1 12:1 14:5 16:3 
0.04100182970273273 1 12:5 14:4 17:5 
0.05796455110229216 1 12:4 14:4 16:1 17:2 
0 1 3:1 4:1 12:2 14:1 16:1 
1 1 12:4 14:6 
1 1 12:2 14:4 16:3 17:6 
0 1 10:1 12:2 14:6 16:1 17:3 
0 1 12:1 14:1 16:1 17:1 
0 1 3:1 14:3 16:1 
1 0.837991976087559 3:3 8:1 12:1 14:5 16:2 17:4 
0 1 3:1 12:3 14:3 16:3 17:1 
1 1 8:1 12:6 14:5 17:1 
1 1 3:2 12:2 14:4 16:1 
0 1 4:1 12:4 14:6 16:1 17:3 
1 1 12:3 14:7 17:1 
0 1 12:3 14:1 16:1 
0 1 12:2 14:1 16:1 
0 1 10:1 12:3 14:1 
0 1 10:1 14:1 
1 1 14:3 16:1 
1 1 12:2 14:2 16:1 
0.8330940239238963 1 12:3 14:2 17:2 
1 1 1:0.1 2:1 10:1 12:4 14:4 
0 1 4:1 14:2 16:1 
1 1 12:3 14:7 16:2 17:3 
1 0.748417484548666 8:1 10:1 12:4 14:5 16:1 17:3 
1 1 3:2 12:2 14:3 16:1 
0 1 10:1 12:2 14:6 
1 1 8:1 12:2 14:5 16:1 17:7 
1 1 8:1 12:2 14:5 16:1 17:7 
1 1 1:0.071428571 2:1 8:1 12:3 14:6 16:1 17:3 
1 1 3:1 8:1 12:3 14:3 
0 1 12:1 14:3 17:1 
0 1 12:5 13:1 14:4 16:2 17:3 
0 1 12:3 14:1 
0.04844523954089243 1 14:4 16:1 
0 1 1:0.16666667 2:1 12:2 14:4 
1 1 12:3 14:5 16:1 17:3 
0 1 12:2 14:2 16:2 17:3 
1 0 8:1 10:1 12:3 14:4 16:1 17:2 
0 1 12:2 14:1 
0 1 12:1 14:3 16:1 17:1 
0 1 10:1 12:2 14:7 17:3 
0 1 12:2 14:2 17:1 
0 1 4:1 12:4 14:3 
1 1 1:0.083333333 2:1 14:4 16:2 17:1 
0 1 12:2 16:2 
0 1 3:1 12:3 14:5 16:2 
0 1 10:1 12:4 14:4 16:2 17:5 
1 1 3:1 8:1 12:6 14:1 16:1 17:5 
0 1 4:1 12:3 17:1 
0 1 10:1 12:8 14:4 16:1 
1 1 8:2 12:3 14:3 17:1 
0 1 12:2 14:5 17:1 
1 1 12:1 14:3 16:1 17:3 
0 1 3:2 12:1 14:1 16:2 
1 1 12:4 14:3 16:1 17:1 
0.8010139260411568 1 12:2 14:8 
0 1 10:1 12:1 14:6 
0 1 12:3 14:3 16:1 
0.9958169188982872 1 12:3 14:2 
0 1 1:0.076923077 2:1 3:1 4:1 12:2 14:5 16:1 17:3 
1 1 1:0.1 2:1 8:1 12:1 14:6 16:1 17:1 
0 1 3:2 12:3 14:4 
0 1 12:1 14:4 16:2 17:1 
1 1 3:1 12:3 14:5 16:2 17:3 
1 1 12:2 14:2 16:1 
1 1 12:4 16:2 17:1 
0 1 3:1 10:1 12:2 14:2 
0 1 12:1 14:7 16:1 
0 1 6:1 14:2 16:1 17:1 
0 1 10:1 12:8 14:3 
1 1 1:0.076923077 2:1 3:2 12:2 14:4 17:4 
0 1 10:1 12:3 
0 1 8:1 12:2 14:3 
0 1 1:0.16666667 2:1 3:1 12:2 14:4 16:2 
0.08386403667801394 1 12:3 14:2 
1 1 12:3 14:2 17:1 
0 1 12:1 14:6 16:2 
0 1 12:2 14:3 
0 1 4:1 12:4 14:3 16:1 17:3 
0 1 12:1 14:4 17:6 
0 1 12:3 14:2 16:2 
1 1 8:1 12:2 14:6 16:2 
1 1 8:1 10:1 14:6 16:1 
0 1 12:2 14:3 16:3 
0 1 4:1 12:4 14:1 17:1 
1 1 8:1 14:5 16:2 17:4 
0 1 1:0.28571429 2:1 14:3 16:3 
0 1 3:1 12:3 14:1 
1 1 1:0.11111111 2:1 9:3 12:2 14:2 16:2 17:1 
1 1 8:1 12:5 14:3 16:1 17:3 
1 1 12:1 14:3 16:2 17:2 
0 1 12:1 14:1 16:1 17:1 
0 1 1:0.33333333 2:1 12:4 14:6 16:1 17:1 
0 1 4:1 12:5 14:3 16:1 17:1 
1 1 12:2 14:4 16:2 17:2 
0 1 10:1 12:1 14:5 16:1 
0 1 3:1 12:4 14:2 16:1 17:1 
0 1 9:1 12:2 14:2 16:2 
1 1 12:1 14:9 16:1 17:3 
1 1 1:0.14285714 2:1 12:1 14:3 16:2 17:1 
0 1 12:2 14:4 16:3 
0.2919891169766146 1 1:0.066666667 2:1 3:1 12:3 14:7 16:1 
1 1 8:1 9:1 12:1 14:8 16:3 17:2 
1 1 12:3 14:4 
1 1 3:1 12:1 17:1 
1 0 4:1 8:1 12:4 14:1 16:1 17:1 
1 1 3:1 12:3 14:8 17:1 
0 1 3:1 14:4 16:2 
0 1 10:1 12:3 16:2 
1 1 12:3 14:3 16:3 
0 1 12:2 14:3 
1 1 1:0.3 2:1 3:1 8:1 12:4 14:2 16:1 17:1 
1 1 9:1 12:3 14:3 16:2 17:3 
0 1 3:1 4:1 12:3 14:7 
0 1 10:1 12:3 14:7 
0 1 12:3 14:4 16:1 
0.1110477615322724 1 12:2 14:5 16:3 17:5 
0.149091089696029 1 12:1 14:3 
0 1 12:2 14:3 16:3 
1 1 12:1 14:4 16:2 17:2 
1 1 8:1 12:2 14:5 17:2 
0 1 3:1 12:3 14:2 16:3 17:4 
0 1 12:2 14:1 
0.1356821976699149 1 3:1 12:1 14:3 17:3 
1 1 9:1 12:3 14:3 16:1 
0 1 12:1 14:3 16:2 
1 1 12:2 14:3 16:1 
1 1 3:1 8:1 12:1 14:3 16:1 17:1 
1 1 3:2 12:3 14:5 16:1 17:1 
0 1 1:0.4 2:1 14:2 16:1 17:1 
1 1 1:0.4 2:1 3:2 12:1 14:1 16:1 
0 1 12:2 14:2 16:2 17:3 
0 1 12:2 14:4 
1 1 12:4 16:1 
0 1 12:2 14:4 16:3 17:1 
1 1 8:1 10:1 12:4 14:7 16:1 
0 1 10:1 14:5 
1 1 3:1 12:1 14:6 16:1 17:7 
1 1 8:2 12:4 14:3 16:1 17:3 
0 1 14:4 16:1 
0 1 1:0.125 2:1 10:1 12:2 14:9 17:3 
0 1 4:1 12:1 14:6 
0 1 12:2 14:7 17:1 
0 1 12:3 14:5 17:1 
0.9130286873668452 1 12:3 14:3 16:1 17:2 
0 1 1:0.1875 2:1 12:2 14:7 16:2 17:3 
0 1 12:1 14:4 16:2 
1 1 3:1 12:1 14:2 16:2 17:2 
0.3587848714359505 1 10:1 12:2 14:5 16:1 17:2 
0 1 12:1 14:2 16:2 17:3 
0 1 12:1 14:1 16:1 
0 1 14:2 16:1 17:1 
1 1 8:2 12:2 14:2 16:1 17:2 
0.08429006461497425 1 12:2 14:2 16:4 17:1 
1 1 12:5 14:5 17:1 
1 1 1:0.14285714 2:1 3:1 8:1 12:3 14:5 16:2 17:3 
0 1 10:1 12:2 14:2 16:1 
0 1 9:1 14:3 16:2 
1 0 3:1 8:1 12:4 14:3 16:3 17:5 
0 1 12:3 14:1 17:3 
0 1 3:2 14:4 16:1 17:1 
1 1 12:4 14:4 17:3 
0 1 3:3 12:1 14:5 16:1 
0.9898087429924431 1 3:1 12:2 14:2 17:1 
0 1 10:1 12:1 14:1 16:1 17:3 
0.8784159166490557 1 12:2 14:1 17:1 
0 1 6:1 12:1 14:5 16:2 
0 1 12:2 14:1 16:1 17:1 
0 1 10:1 12:4 14:4 
1 1 8:1 12:4 14:2 17:1 
1 1 12:3 14:6 
0 1 6:1 12:1 14:3 16:1 17:1 
0 1 12:3 14:5 16:1 17:1 
0 1 12:3 14:1 
1 1 12:8 14:3 16:2 
1 1 9:1 12:3 14:4 16:1 17:1 
0 1 10:1 12:2 14:9 16:1 17:3 
0.01491216388173491 1 1:0.33333333 2:1 12:2 14:5 16:2 17:4 
0 1 6:1 12:3 14:6 16:1 
0 1 12:1 14:4 16:1 17:5 
0 1 12:2 14:4 16:1 17:1 
0 1 10:1 12:4 14:2 
0.8631048749633605 1 1:0.11111111 2:1 3:1 12:1 14:2 16:3 17:1 
0 1 1:0.2 2:1 6:1 12:3 14:1 
1 1 14:6 16:2 17:1 
0 1 3:1 12:2 14:3 16:1 
1 1 12:2 14:2 17:5 
0.1228460068293084 1 14:5 16:2 17:2 
0 1 10:1 12:2 14:2 16:2 
0 1 3:2 12:1 14:4 16:1 
1 1 12:4 14:3 17:3 
0.6131701386331554 1 11:1 14:1 17:3 
0 1 8:1 10:1 12:2 14:3 17:1 
1 1 9:1 12:1 14:4 16:2 17:3 
0 1 3:1 12:2 14:3 
1 1 1:0.066666667 2:1 12:3 14:6 16:2 17:4 
1 1 12:1 14:2 
0.2024770952354797 0 12:3 14:3 16:4 17:4 
1 1 12:5 14:4 16:2 
1 1 1:0.071428571 2:1 3:1 12:2 14:4 16:2 17:3 
0 1 4:1 12:1 14:5 16:1 17:3 
1 1 8:1 12:5 14:2 16:2 17:2 
0 1 1:0.16666667 2:1 10:1 12:4 14:3 17:1 
1 1 8:1 12:4 14:1 17:4 
1 1 12:3 14:6 17:3 
1 1 12:1 14:2 16:2 
1 1 12:2 14:3 16:1 
0.6544954888995654 1 12:1 14:3 16:2 
1 1 12:2 14:4 16:1 
1 1 12:3 14:3 16:2 17:4 
0 1 12:2 14:2 16:3 
0.7246401290859361 1 1:0.1 2:1 12:3 14:6 16:1 
1 1 12:3 14:5 16:3 17:4 
1 1 12:4 14:7 16:1 17:5 
0 1 12:1 14:4 16:3 17:1 
0 1 12:1 14:4 16:3 17:4 
0 1 1:0.16666667 2:1 12:1 14:3 16:2 
1 1 3:1 8:1 12:2 14:6 17:3 
1 1 12:5 14:4 16:1 17:1 
1 1 1:0.066666667 2:1 3:2 12:3 14:3 16:2 17:5 
0 1 12:5 14:6 16:2 17:7 
0 1 10:1 12:2 14:6 16:1 17:4 
0.7688367548039239 1 10:2 12:4 14:8 
1 1 12:5 14:3 17:1 
1 1 3:1 12:3 14:8 17:3 
1 1 8:1 10:1 12:7 14:5 16:1 17:2 
0 1 4:1 12:2 14:1 
1 1 3:1 12:3 14:5 16:1 17:3 
1 1 8:1 12:3 14:1 17:1 
1 1 8:1 12:4 14:5 16:1 17:5 
0 1 6:1 12:3 14:4 16:2 
1 1 9:1 12:2 14:4 16:1 17:1 
1 1 12:3 14:5 16:2 
1 1 12:3 14:8 16:3 
0 1 12:5 14:6 16:2 17:1 
0 1 1:0.125 2:1 14:3 16:1 17:2 
1 1 12:1 14:3 16:1 
1 1 8:1 12:3 14:4 17:1 
1 1 12:3 14:5 16:1 
0 1 12:2 14:7 16:2 17:3 
0 1 10:1 12:2 14:1 17:2 
1 1 12:4 14:7 16:2 17:3 
0 1 4:1 12:1 14:5 16:1 
1 1 8:1 12:2 14:10 16:1 17:1 
0 1 3:1 12:1 14:5 16:1 
1 1 12:4 14:3 16:1 17:3 
1 1 12:3 14:3 16:1 17:5 
0 0.0358827250971618 3:2 4:1 12:1 14:2 16:1 17:4 
1 1 8:1 12:2 14:7 17:2 
1 1 12:1 14:3 16:1 17:4 
0.4480649987659429 1 1:0.076923077 2:1 3:1 12:1 14:7 16:1 17:1 
0 1 10:1 12:2 14:1 
0 1 10:1 14:8 17:1 
0 1 3:2 12:2 14:1 16:2 
0 1 12:1 14:1 16:1 17:1 
0 1 12:2 14:4 
0 1 6:1 12:3 14:2 16:1 17:1 
0 1 4:1 11:2 12:3 14:2 16:1 17:4 
0 1 4:1 12:4 14:5 16:1 17:3 
0 1 10:1 12:1 14:6 16:1 
0 1 12:1 14:1 16:1 17:1 
0 1 1:0.090909091 2:1 3:2 12:5 14:2 16:1 17:1 
0 1 3:1 12:3 14:3 17:3 
0.695157444698704 0 1:0.18181818 2:1 10:3 12:2 14:3 16:3 
0 1 1:0.1 2:1 12:2 14:2 16:2 17:3 
0 1 10:1 12:4 14:3 
1 1 3:1 8:1 12:3 14:4 17:2 
1 0 4:1 5:1 12:1 14:2 16:3 17:1 
0 1 14:4 16:2 17:4 
1 1 8:1 12:3 14:5 17:2 
1 0 8:1 12:4 14:4 16:4 17:1 
1 1 8:1 12:4 14:4 17:1 
0 0.5523108278538548 4:1 12:7 14:2 16:2 17:2 
0.8767465328833693 1 12:2 14:5 16:2 17:9 
1 1 12:2 14:6 16:2 17:1 
1 0 8:1 10:1 12:3 14:4 17:1 
0 1 12:1 16:1 
1 0 8:1 12:4 14:5 16:3 17:1 
1 1 8:1 12:2 14:5 16:1 17:1 
0 1 12:3 14:4 17:3 
0 1 12:2 14:4 16:3 
1 1 12:2 14:3 16:1 
0 1 10:1 12:3 14:4 16:1 17:3 
0 1 10:1 12:3 14:3 16:1 17:1 
0 0.3423763078427364 10:1 12:1 14:7 16:1 17:6 
0 1 6:1 14:6 
1 1 12:3 14:2 17:1 
1 1 12:5 14:3 16:1 
1 1 3:1 12:2 14:1 16:1 17:3 
0 1 12:2 14:6 16:1 17:3 
1 1 12:1 14:2 
0.6640657431207809 1 8:1 12:1 14:4 16:3 17:1 
1 1 12:2 14:4 16:1 
0 1 10:1 12:4 14:4 16:1 
0.2088484193669831 1 12:2 14:1 17:1 
0 1 12:1 14:4 16:2 17:4 
0 1 1:0.23076923 2:1 3:1 12:2 14:4 16:2 
1 1 12:4 14:3 16:1 17:4 
1 1 3:1 12:3 14:7 16:1 
0 1 12:1 14:9 16:2 17:4 
0 1 1:0.25 2:1 14:2 17:1 
1 1 12:2 14:3 16:1 17:1 
0 1 12:2 14:4 16:3 17:1 
0 1 12:2 14:1 16:1 
0 1 12:3 14:2 17:3 
1 1 12:2 14:3 16:1 17:1 
0 1 1:0.0625 2:1 12:4 14:5 16:2 17:3 
1 1 8:1 12:2 14:3 16:1 17:3 
0.6159303975855508 1 14:5 16:1 17:1 
0 1 12:2 14:5 17:1 
0 1 12:1 14:6 16:1 
1 1 12:4 14:4 16:1 17:1 
1 1 12:4 14:7 16:1 
0.2692837737569116 1 12:1 14:5 16:1 
1 1 8:1 12:4 14:2 16:1 17:2 
1 1 12:1 14:7 16:1 17:3 
1 1 8:1 14:2 16:1 17:2 
1 1 1:0.1 2:1 3:2 12:2 14:6 
0 1 4:1 14:2 
1 1 8:1 12:2 14:4 17:3 
0 1 10:1 14:3 
1 1 12:3 14:4 16:2 
1 1 12:1 14:5 16:1 
0.5091209780493243 1 12:2 14:7 16:1 17:3 
0 1 14:4 16:1 17:2 
0.5150397565554552 1 12:2 14:5 
0 1 12:6 14:3 16:2 17:3 
0 1 1:0.57142857 2:1 3:1 12:3 14:2 
0 1 10:2 12:4 14:1 
1 1 1:0.083333333 2:1 12:2 14:4 16:2 17:4 
0 1 1:0.066666667 2:1 12:3 14:4 16:2 17:4 
1 1 1:0.066666667 2:1 12:2 14:5 16:2 17:5 
0 1 10:1 12:2 14:5 16:1 
0 1 1:0.058823529 2:1 12:6 14:4 16:1 17:6 
0 1 3:1 12:2 14:5 16:2 17:3 
0 1 3:1 12:3 14:4 16:2 17:1 
0.1332196974234849 1 1:0.066666667 2:1 9:1 12:3 14:4 16:3 17:4 
0.4368515454223488 1 3:1 12:2 14:2 17:1 
1 1 8:1 12:2 14:5 16:1 17:4 
0 1 12:1 14:3 17:2 
0 1 1:0.090909091 2:1 3:1 12:3 14:3 16:1 17:3 
1 1 3:1 12:3 14:8 16:1 17:3 
0 1 1:0.058823529 2:1 4:1 12:4 14:5 16:1 17:4 
1 1 1:0.1 2:1 9:1 12:3 14:4 16:1 
1 1 12:2 14:4 16:1 
0 1 1:0.25 2:1 12:5 14:1 16:1 
0 0.2802754224231007 1:0.058823529 2:1 10:1 12:1 14:7 16:3 17:3 
1 0 8:1 10:1 12:4 14:3 16:3 17:2 
1 1 8:1 12:2 14:4 17:2 
1 1 1:0.090909091 2:1 3:1 12:2 14:4 16:2 17:1 
0 1 10:1 12:2 14:6 16:1 
1 1 12:3 14:4 
0.5661434414729689 1 12:1 14:4 16:2 17:1 
1 1 12:2 14:5 16:1 17:3 
0 1 12:1 14:5 16:2 17:3 
0 1 1:0.083333333 2:1 12:3 14:3 16:1 17:3 
0.2207632149065538 0 1:0.066666667 2:1 10:1 12:2 14:5 15:1 16:3 17:3 
0.2782863933449909 1 14:2 
1 1 8:2 12:3 14:4 17:8 
1 1 9:1 12:2 14:1 16:1 
1 1 8:1 12:3 14:3 17:1 
0 1 1:0.066666667 2:1 12:4 14:6 16:3 
0 1 10:1 12:5 14:2 16:2 17:1 
1 1 3:1 8:1 12:2 14:5 16:1 17:2 
0 1 12:2 14:3 17:5 
1 1 12:2 14:1 17:1 
1 0 8:1 10:1 12:4 14:2 16:2 17:2 
0 1 10:1 12:2 14:2 17:1 
1 1 8:1 12:6 13:1 14:2 17:2 
0 1 1:0.2 2:1 10:2 12:2 14:2 
0 1 1:0.14285714 2:1 12:2 14:4 
0 1 1:0.090909091 2:1 12:1 14:7 16:2 
0.9790117559367394 0.8480452997370626 3:2 8:1 14:3 16:3 17:2 
1 1 12:1 14:7 17:1 
0 1 10:1 12:2 14:1 17:1 
0 1 10:1 12:1 14:3 
0 1 10:1 12:1 14:3 17:3 
1 1 1:0.090909091 2:1 12:2 14:5 16:1 
0 1 10:3 12:2 14:4 16:1 
0 1 10:1 12:3 14:1 16:1 17:1 
0 1 1:0.2 2:1 10:1 14:3 
1 1 12:2 14:3 16:1 17:2 
0 1 10:1 14:2 
0 1 12:1 14:5 16:1 17:4 
1 1 1:0.055555556 2:1 8:1 10:1 12:6 14:6 16:1 17:3 
1 1 1:0.10526316 2:1 8:1 12:2 14:3 17:10 
0 1 3:1 12:2 14:1 16:2 
0 1 12:2 14:5 16:4 
0 1 10:1 12:1 14:2 16:1 
0 1 12:3 14:4 16:1 17:3 
0 1 10:1 12:1 14:4 16:1 
0.9806063588885929 1 10:1 12:4 14:8 16:1 17:6 
1 1 3:1 12:1 14:7 17:5 
1 1 3:1 12:2 14:5 16:1 17:3 
1 1 12:3 14:1 16:1 17:4 
0.08757304005436496 1 1:0.22222222 2:1 3:1 12:2 14:4 
0 1 1:0.11111111 2:1 12:6 14:4 16:1 17:6 
0 1 14:2 16:1 17:3 
-1 1 12:1 14:2 17:1 
-1 1 8:1 12:8 14:2 16:1 17:1 
-1 1 12:7 14:5 
-1 1 8:2 12:2 14:5 17:8 
-1 1 8:1 12:2 14:7 17:2 
-1 1 1:0.083333333 2:1 12:4 14:5 16:1 17:1 
-1 1 12:2 14:3 16:1 17:2 
-1 1 9:1 12:3 14:6 16:1 
-1 1 8:1 12:4 16:1 17:1 
-1 1 8:1 12:4 14:4 17:2 
-1 1 3:1 12:2 14:5 16:1 
-1 1 8:1 12:4 14:1 16:1 17:1 
-1 1 12:1 14:4 17:1 
-1 1 12:2 14:2 16:2 
-1 1 12:4 14:7 17:2 
-1 1 12:1 14:2 16:2 17:1 
-1 1 3:1 12:3 14:3 17:4 
-1 1 9:1 12:1 14:5 16:1 17:4 
-1 1 12:3 14:4 16:1 17:2 
-1 1 1:0.083333333 2:1 12:1 14:7 16:3 
-1 1 8:1 14:3 17:4 
-1 1 1:0.16666667 2:1 3:1 12:1 14:2 16:2 
-1 1 3:1 12:2 14:1 17:1 
-1 1 1:0.058823529 2:1 8:2 10:1 12:3 14:4 17:7 
-1 1 8:1 12:4 14:2 16:1 17:1 
-1 1 12:1 14:4 16:3 17:4 
-1 1 3:1 12:2 14:4 16:1 17:1 
-1 1 5:1 12:2 14:2 16:4 
-1 1 3:1 12:1 
-1 1 3:1 8:1 12:6 14:3 17:2 
-1 1 12:5 14:4 16:1 17:4 
-1 1 12:1 14:6 17:3 
-1 1 8:1 10:1 12:3 14:5 17:3 
-1 1 12:2 14:4 17:2 
-1 1 8:1 12:3 14:3 16:1 17:1 
-1 1 12:1 14:4 
-1 1 3:3 8:1 12:2 14:3 16:1 17:1 
-1 1 3:1 8:1 12:4 14:3 17:3 
-1 1 12:2 14:4 16:2 
-1 1 8:1 12:2 14:5 16:2 17:2 
-1 1 10:1 12:1 14:5 17:3 
-1 1 3:1 8:1 10:1 12:5 14:4 17:1 
-1 1 1:0.1 2:1 12:2 14:2 16:1 17:3 
-1 1 12:4 14:6 16:1 17:1 
-0.3025920004894459 0.7271675936368673 1:0.083333333 2:1 8:3 10:1 12:2 14:1 17:8 
-1 1 3:1 12:3 14:5 16:2 17:6 
-1 0 5:1 8:1 12:4 14:6 16:2 17:1 
-1 1 3:1 12:5 14:1 16:1 17:3 
-1 1 12:2 14:2 16:1 17:3 
-1 1 9:1 12:2 14:3 16:1 
-1 1 12:5 14:3 16:1 17:5 
-1 1 12:2 14:4 16:2 17:1 
-1 1 8:1 12:4 14:3 16:2 17:6 
-1 1 8:1 12:1 14:3 16:3 17:5 
-1 1 12:3 14:3 16:1 17:3 
-1 1 8:1 12:6 14:3 16:1 17:1 
-1 1 8:1 12:5 14:1 16:1 17:2 
-1 1 3:1 
-1 1 3:2 12:2 14:4 16:1 17:1 
-1 1 8:1 12:1 14:2 16:5 17:3 
-1 1 10:1 14:3 16:1 17:3 
-1 1 1:0.11111111 2:1 12:2 14:4 16:1 
-1 1 8:1 10:1 12:1 14:6 17:2 
-1 1 12:2 14:6 16:4 17:3 
-1 1 1:0.090909091 2:1 12:1 14:3 16:2 17:4 
-1 1 12:2 13:1 14:4 17:1 
-1 1 1:0.052631579 2:1 8:1 12:4 14:5 17:9 
-1 1 3:1 8:1 12:3 14:4 16:2 
-1 1 12:2 14:1 16:2 
-1 1 8:1 12:7 14:3 17:2 
-1 1 8:1 9:1 12:2 14:7 17:1 
-1 1 1:0.125 2:1 12:3 14:4 16:1 
-1 1 1:0.11111111 2:1 12:5 14:3 16:1 
-1 1 8:1 12:3 14:5 17:1 
-1 1 8:1 14:7 16:1 17:3 
-1 1 3:1 8:1 12:4 16:1 17:1 
-1 1 12:2 14:2 16:1 
-1 1 4:1 12:2 14:3 16:2 17:1 
-1 1 12:6 13:1 14:7 16:2 
-1 1 10:1 12:3 14:3 16:1 17:1 
-1 1 1:0.071428571 2:1 12:1 14:8 16:1 17:3 
-1 1 12:2 14:5 16:1 
-1 1 12:3 14:4 16:3 17:4 
-1 1 12:1 14:3 16:5 17:3 
-1 1 3:1 12:1 14:5 16:1 17:3 
-1 1 12:4 14:9 16:1 17:1 
-1 1 12:3 14:3 16:2 
-1 1 9:1 10:1 12:4 14:4 
-1 1 3:2 12:2 14:3 17:1 
-1 1 8:1 9:1 12:4 14:3 16:1 
-1 1 12:6 14:5 16:1 
-1 1 12:2 14:3 17:1 
-1 1 3:1 12:2 14:5 16:5 17:6 
-1 1 10:1 12:3 14:2 16:1 
-1 1 12:5 14:1 16:1 17:3 
-1 1 14:4 17:2 
-1 1 12:3 14:3 16:1 
-1 1 12:1 14:2 16:1 
-1 1 1:0.1 2:1 3:1 12:1 14:3 16:2 17:3 
-1 1 1:0.2 2:1 3:2 12:3 14:5 
-1 1 10:1 12:4 14:7 17:6 
-1 1 3:1 14:5 17:6 
-1 1 8:1 12:2 14:3 16:1 17:5 
-1 1 8:1 12:3 14:2 17:4 
-1 1 5:1 8:1 12:1 14:4 15:1 16:1 17:1 
-1 1 1:0.071428571 2:1 12:3 14:6 16:2 17:3 
-1 1 1:0.125 2:1 3:1 8:1 10:2 12:1 14:2 16:2 17:1 
-1 1 12:4 14:2 16:3 
-1 1 1:0.4 2:1 3:1 14:2 16:1 
-1 1 12:3 14:3 17:1 
-1 1 8:1 12:3 14:3 16:1 17:3 
-1 1 1:0.0625 2:1 12:3 14:5 16:3 17:3 
-1 1 8:1 12:5 14:5 16:3 17:7 
-1 1 1:0.14285714 2:1 10:1 12:4 14:2 
-1 1 12:2 14:4 17:1 
-1 1 5:1 12:4 14:5 16:1 
-1 1 3:1 12:4 14:5 16:1 17:2 
-1 1 10:3 12:2 14:5 17:1 
-1 1 12:5 14:3 17:1 
-1 1 8:1 12:2 14:3 16:3 17:2 
-1 1 12:4 14:3 
-1 1 8:2 12:1 13:1 14:6 16:1 17:1 
-1 0 8:2 12:7 14:4 16:1 17:2 
-0 0.754761902679946 5:1 8:1 12:4 14:5 17:1 
-1 1 9:1 14:3 16:1 17:1 
-1 1 12:3 14:4 16:1 17:1 
-1 1 8:1 9:1 12:1 14:2 16:1 17:2 
-1 1 3:1 12:1 14:5 16:1 
-1 1 12:1 14:2 16:1 
-1 1 12:4 14:2 16:2 17:1 
-1 1 12:6 14:2 17:3 
-1 1 1:0.058823529 2:1 3:1 12:3 14:4 16:2 17:7 
-1 1 12:6 14:5 17:1 
-1 1 1:0.1 2:1 8:1 12:9 14:3 16:2 17:4 
-1 1 12:3 14:4 17:3 
-1 1 12:2 14:3 16:2 17:2 
-1 1 10:1 12:4 14:3 
-1 1 3:1 12:4 14:3 16:1 17:1 
-1 1 12:2 14:3 17:2 
-1 1 12:3 14:3 16:1 17:4 
-1 1 3:1 8:1 12:6 14:2 17:4 
-1 1 1:0.058823529 2:1 8:1 12:2 14:6 16:1 17:6 
-1 1 8:1 10:1 12:2 14:3 16:2 17:7 
-1 1 12:4 14:4 16:1 17:1 
-1 1 10:1 12:3 14:9 16:4 17:1 
-1 1 12:1 14:2 16:1 
-1 1 1:0.071428571 2:1 5:1 12:4 14:3 16:1 17:4 
-1 1 8:1 12:3 14:3 16:1 17:4 
-1 1 12:2 14:5 16:2 17:5 
-1 1 8:2 12:5 14:9 16:1 17:3 
-1 1 1:0.058823529 2:1 14:5 16:2 17:10 
-1 1 9:1 12:2 14:2 16:2 17:4 
-1 1 12:4 14:4 16:2 
-1 1 12:3 14:3 16:3 
-1 1 8:1 12:5 14:3 16:1 17:1 
-1 1 12:2 14:6 17:4 
-1 1 12:2 14:3 16:2 17:1 
-1 0 8:2 12:4 14:4 16:2 17:1 
-1 1 12:4 14:2 16:1 
-1 1 8:1 14:3 
-1 1 12:4 14:4 16:1 17:3 
-1 1 8:1 12:2 14:3 16:1 17:1 
-1 1 3:1 12:6 14:1 16:1 17:1 
-1 1 12:3 14:2 16:1 
-1 1 8:1 12:5 14:4 16:2 17:4 
-1 1 3:1 12:3 14:2 16:1 17:1 
-1 1 8:1 12:3 14:5 17:2 
-1 1 12:3 14:4 16:1 17:5 
-1 1 12:3 14:4 16:1 17:3 
-1 1 5:1 12:5 14:2 16:1 17:2 
-1 1 1:0.090909091 2:1 3:1 12:1 14:3 16:1 17:3 
-1 1 8:1 12:4 14:3 16:1 17:1 
-1 1 10:1 12:4 14:2 17:1 
-1 1 12:4 14:3 
-1 0 8:2 12:3 14:4 16:3 17:2 
-1 1 12:2 14:5 16:3 17:6 
-1 1 8:1 10:1 12:3 14:2 16:2 17:2 
-1 1 8:1 9:1 10:1 12:5 14:2 16:1 17:1 
-1 1 12:5 14:1 16:2 17:1 
-1 1 8:1 12:2 14:1 16:1 17:4 
-1 1 8:1 12:6 14:2 16:1 17:2 
-1 1 1:0.076923077 2:1 3:1 8:1 12:5 14:5 16:1 17:1 
-1 1 12:3 14:3 16:1 17:1 
-1 1 8:1 10:1 12:2 14:2 16:2 17:5 
-1 1 1:0.090909091 2:1 12:4 14:3 16:1 17:2 
-1 1 12:1 14:2 16:1 17:1 
-1 1 8:1 14:9 16:1 17:2 
-1 1 1:0.083333333 2:1 12:4 14:3 16:1 17:3 
-1 1 9:1 12:1 14:4 16:1 17:3 
-1 1 3:1 8:1 12:3 14:3 17:8 
-1 1 12:4 14:3 16:3 
-1 1 9:3 12:2 14:2 
-1 1 8:1 9:1 12:5 14:3 17:2 
-1 1 1:0.058823529 2:1 12:4 14:8 16:1 17:4 
-1 1 1:0.2 2:1 6:1 12:2 
-1 1 9:3 12:2 14:2 16:1 
-1 1 3:1 5:1 8:1 12:3 14:7 16:1 17:3 
-1 1 8:1 14:6 16:1 17:2 
-1 1 12:3 14:4 17:7 
-1 1 12:2 14:2 
-1 1 1:0.38461538 2:1 8:1 12:4 14:5 16:1 17:2 
-1 1 12:6 14:2 17:3 
-1 1 12:4 14:2 
-1 1 1:0.090909091 2:1 3:1 12:2 14:6 16:1 17:1 
-1 1 12:2 14:2 16:4 17:2 
-1 1 12:3 14:4 16:2 17:6 
-1 1 8:3 14:6 17:1 
-1 1 12:2 14:4 16:1 17:6 
-1 1 3:3 12:2 14:2 
-1 1 8:1 12:6 14:3 16:1 17:1 
-0 1 5:1 12:2 14:3 17:1 
-1 1 10:3 12:5 14:5 
-1 0.8257955199273418 3:2 8:2 12:4 14:6 16:2 17:4 
-1 1 8:1 12:4 14:5 16:2 17:1 
-1 1 11:2 12:3 14:4 16:1 
-1 1 1:0.25 2:1 4:1 8:1 12:2 14:2 16:2 17:1 
-1 1 8:2 12:1 14:3 16:3 17:2 
-1 1 8:1 12:4 14:3 16:3 17:2 
-1 1 12:1 14:2 16:2 
-1 1 1:0.083333333 2:1 10:3 12:4 14:4 16:2 17:1 
-1 1 1:0.125 2:1 14:4 16:2 17:1 
-1 1 12:6 14:3 16:2 
-1 1 8:1 12:4 14:3 16:1 17:2 
-1 1 12:3 14:5 
-1 1 12:3 14:3 17:1 
-1 1 12:1 14:7 16:1 17:3 
-1 1 8:1 12:5 14:3 16:1 17:5 
-1 1 12:2 14:8 16:2 17:1 
-1 1 8:1 10:1 12:4 14:3 16:2 17:4 
-1 1 8:1 12:5 14:1 17:1 
-1 1 12:5 14:6 16:2 17:7 
-1 1 8:1 12:5 14:5 16:3 17:1 
-1 1 1:0.2 2:1 8:1 12:2 14:2 17:1 
-1 1 12:1 14:2 
-1 1 12:3 14:4 
-1 1 12:3 14:3 16:4 17:6 
-1 1 1:0.22222222 2:1 8:1 12:2 14:4 16:1 17:2 
-1 1 8:1 9:1 12:4 14:1 16:2 17:2 
-1 1 10:1 12:2 14:5 16:1 17:3 
-1 1 8:1 12:3 14:5 16:2 17:2 
-1 1 9:1 12:3 14:3 16:1 17:2 
-1 1 12:2 14:4 17:3 
-1 1 8:1 12:3 14:7 16:1 17:1 
-0 1 5:1 12:3 14:2 16:1 17:1 
-1 1 12:1 14:4 16:1 
-1 1 8:1 14:4 
-1 1 8:1 10:3 12:6 14:4 16:1 17:1 
-1 1 10:1 12:3 14:2 17:1 
-1 1 12:3 14:1 17:2 
-1 1 8:1 12:1 14:7 16:3 17:1 
-1 1 12:2 14:3 16:1 
-1 1 12:2 14:3 
-1 1 8:1 12:1 14:9 17:1 
-1 1 3:1 12:3 14:6 16:2 17:6 
-1 1 8:1 12:2 14:7 17:7 
-1 0.01064156183576906 3:1 5:1 8:1 12:2 14:4 16:3 17:1 
-1 1 12:4 14:7 17:1 
-1 1 12:2 14:4 16:2 17:4 
-1 1 1:0.071428571 2:1 3:1 12:2 14:6 17:4 
-1 1 8:1 14:4 16:1 17:2 
-1 1 12:6 14:2 16:2 17:2 
-1 1 1:0.052631579 2:1 3:1 12:3 14:7 16:2 17:6 
-1 1 3:1 12:4 14:8 17:3 
-1 1 12:1 14:5 16:2 17:1 
-1 1 9:1 12:4 14:7 17:3 
-1 1 1:0.125 2:1 5:1 8:1 12:2 14:4 17:1 
-1 1 8:1 12:3 14:4 16:1 17:2 
-1 1 12:3 14:5 16:1 17:1 
-1 1 12:4 14:4 16:4 17:1 
-1 1 12:4 14:8 16:3 
-1 1 12:3 14:3 17:1 
-1 1 10:1 12:3 14:5 16:2 
-1 0 8:2 12:5 14:4 16:4 17:2 
-1 1 8:1 12:1 14:4 16:1 17:1 
-1 1 14:5 16:2 
-1 1 12:1 14:2 
-1 1 1:0.27272727 2:1 9:2 10:1 12:3 14:6 
-1 1 8:1 10:1 12:2 14:5 16:1 
-1 1 1:0.22222222 2:1 12:3 14:2 16:1 17:1 
-1 1 12:2 14:5 16:1 17:1 
-1 1 3:1 12:4 14:3 
-1 1 12:1 14:2 16:1 17:3 
-1 1 1:0.30769231 2:1 3:2 12:1 14:5 16:2 17:3 
-1 1 12:2 14:1 16:1 
-1 1 12:4 14:4 16:1 17:5 
-1 1 12:4 16:1 17:3 
-1 1 8:1 12:1 14:3 16:2 
-1 1 8:1 12:4 14:1 17:1 
-1 1 12:1 14:3 16:1 
-1 1 8:2 12:5 14:7 16:1 17:2 
-1 1 12:4 14:3 16:3 
-1 1 1:0.18181818 2:1 3:1 12:3 14:4 16:2 17:1 
-1 1 8:2 12:2 14:2 16:1 17:2 
-1 1 8:1 12:2 14:3 16:2 17:1 
-1 1 12:1 14:4 16:2 
-1 1 1:0.055555556 2:1 8:1 12:3 14:4 16:1 17:9 
-1 1 12:5 14:3 
-1 1 3:1 8:1 12:5 14:4 17:2 
-1 1 12:3 14:5 16:1 17:2 
-1 1 9:1 12:1 14:3 
-1 1 8:1 12:3 14:1 16:1 17:3 
-1 0 8:2 12:5 14:5 16:1 17:3 
-1 1 12:2 14:2 
-1 1 8:1 12:4 14:7 16:1 17:1 
-1 1 12:2 16:1 17:2 
-1 1 12:3 14:5 16:1 17:3 
-1 1 8:1 12:5 14:3 16:1 17:1 
-1 1 12:3 14:5 16:1 
-1 1 9:1 12:1 14:4 16:2 17:1 
-1 1 12:4 14:6 16:1 
-1 1 1:0.2 2:1 3:2 12:3 14:3 17:1 
-1 1 10:1 12:3 14:3 17:1 
-1 1 3:1 8:1 12:2 14:4 16:1 17:3 
-1 1 12:2 14:9 16:1 
-1 1 4:1 8:2 12:2 14:1 17:5 
-1 1 3:1 12:3 14:6 16:1 17:1 
-1 1 12:4 14:1 16:4 17:3 
-1 1 12:4 14:5 
-1 1 1:0.11111111 2:1 12:4 14:4 16:1 
-1 1 1:0.066666667 2:1 12:4 14:6 16:1 17:3 
-1 1 12:4 14:4 16:1 17:1 
-1 1 1:0.2 2:1 8:1 12:4 14:3 17:2 
-1 1 1:0.15384615 2:1 12:2 14:4 16:4 17:2 
-1 0 8:2 10:1 12:3 14:3 16:4 17:3 
-1 1 12:2 14:7 16:3 
-1 1 8:1 12:6 14:5 16:1 17:6 
-1 1 5:1 8:1 12:1 14:7 16:1 17:4 
-1 1 1:0.11111111 2:1 3:2 12:6 14:1 
-1 1 12:3 14:7 
-1 1 1:0.25 2:1 3:1 12:1 
-1 1 12:1 14:1 16:1 17:7 
-1 1 8:1 12:2 14:4 16:1 17:6 
-1 1 8:1 12:3 17:3 
-1 1 8:1 9:1 12:2 14:5 17:3 
-1 1 4:1 8:1 9:1 12:1 14:2 
-1 1 12:1 14:6 16:3 17:2 
-1 1 12:2 14:5 
-1 1 1:0.1 2:1 12:2 14:4 17:1 
-1 1 12:2 14:4 17:9 
-1 1 10:3 12:2 14:1 17:1 
-1 1 12:1 14:4 
-1 1 12:3 14:7 16:1 17:4 
-1 1 14:5 16:1 17:8 
-1 1 12:3 14:7 16:1 17:7 
-1 1 8:1 14:9 16:2 17:1 
-1 1 1:0.076923077 2:1 10:1 12:2 14:5 16:1 17:2 
-1 1 12:3 14:5 16:1 17:2 
-1 1 8:1 10:1 12:4 14:5 16:1 17:2 
-1 1 12:1 14:2 16:1 17:3 
-1 1 3:1 12:3 14:4 17:1 
-1 1 3:1 12:3 14:5 16:2 17:3 
-1 0 8:2 10:1 12:6 14:2 16:1 17:1 
-1 1 12:5 14:5 16:1 
-1 1 3:1 12:3 14:4 16:1 17:4 
-1 1 14:2 16:1 17:4 
-1 1 12:4 14:4 16:5 17:1 
-0.6384003765110995 0 8:2 12:4 14:4 16:2 17:5 
-1 1 9:1 12:4 14:3 16:2 17:1 
-1 1 8:1 10:1 12:3 14:5 17:1 
-1 1 1:0.090909091 2:1 12:4 14:6 16:1 
-1 1 8:1 12:2 14:2 17:4 
-1 1 10:1 12:1 14:6 16:1 
-1 1 1:0.071428571 2:1 3:1 12:4 14:7 16:2 
-1 1 5:1 8:1 12:2 14:3 16:4 17:8 
-1 1 8:1 9:1 12:5 14:2 16:3 17:5 
-1 1 12:4 14:5 16:1 17:1 
-1 1 3:1 12:7 14:2 17:2 
-1 1 1:0.047619048 2:1 8:1 12:3 14:8 17:9 
-1 1 12:1 14:3 16:2 17:1 
-1 1 12:3 14:3 
-1 1 8:1 12:3 14:1 17:7 
-1 1 9:1 10:1 12:1 14:1 
-1 1 10:1 12:1 14:4 
-1 1 8:1 12:2 14:4 17:1 
-1 1 10:2 12:3 14:1 17:1 
-1 1 3:1 12:3 14:4 16:1 17:1 
-1 1 8:2 12:2 14:5 17:1 
-1 1 1:0.083333333 2:1 8:1 12:3 14:5 16:1 
-1 1 12:1 14:2 16:1 
-1 1 3:1 12:4 14:4 16:2 
-1 1 12:3 14:7 17:6 
-1 1 5:1 8:1 12:7 14:2 17:4 
-1 1 12:4 14:4 17:4 
-1 1 8:1 10:2 12:2 14:2 16:1 17:5 
-1 1 3:1 8:1 12:4 14:1 16:1 17:2 
-1 1 8:1 12:2 14:8 
-1 1 12:2 14:4 16:2 17:2 
-1 1 8:1 12:4 14:3 16:1 17:3 
-1 1 8:1 10:1 12:2 14:4 16:2 17:1 
-1 1 8:2 12:3 14:5 17:2 
-1 1 12:2 14:9 17:1 
-1 1 8:1 12:3 14:5 16:2 
-1 1 12:5 14:2 17:3 
-1 1 8:1 12:1 14:7 16:1 17:7 
-1 1 8:1 10:3 12:2 17:1 
-1 1 10:1 12:3 14:3 17:2 
-1 1 5:1 14:1 16:1 
-1 1 8:1 12:1 14:6 17:8 
-1 1 3:1 12:3 14:4 16:1 17:3 
-1 1 8:1 10:1 12:5 14:6 16:2 17:4 
-1 1 12:4 14:4 16:3 17:2 
-1 1 12:1 14:4 16:1 
-1 0 8:2 12:5 14:6 16:2 17:2 
-1 1 12:2 14:5 16:1 17:3 
-1 1 3:1 12:5 14:8 17:3 
-1 1 1:0.1 2:1 8:1 12:2 14:3 16:3 17:2 
-1 1 8:1 12:3 14:1 17:1 
-1 1 1:0.1 2:1 12:4 14:4 16:1 
-1 1 12:5 14:2 17:1 
-1 1 5:1 12:6 14:6 16:1 17:1 
-1 1 8:1 12:2 14:4 
-1 1 8:1 12:1 14:2 16:1 17:1 
-1 1 3:1 5:1 12:2 14:5 16:1 17:5 
-0.8651294768057645 1 3:2 8:2 12:3 14:4 17:5 
-1 1 12:2 14:3 16:1 
-1 1 12:3 14:3 
-1 1 12:2 14:2 16:1 17:2 
-1 1 1:0.1 2:1 12:3 14:5 16:1 
-1 1 3:1 8:1 12:2 14:3 16:1 17:5 
-1 0.2054220501982707 1:0.095238095 2:1 8:3 12:6 14:7 16:3 17:2 
-1 1 8:1 12:4 14:3 16:3 17:3 
-1 1 3:2 12:3 14:4 
-1 1 12:3 14:2 
-1 1 12:6 14:2 16:3 
-1 1 12:4 14:2 
-1 1 8:1 12:2 14:3 16:2 17:2 
-1 1 12:2 14:3 
-1 1 12:5 14:1 
-1 1 8:1 12:4 14:3 17:1 
-1 1 3:1 8:1 12:3 14:2 17:7 
-1 1 12:4 14:4 16:1 
-1 1 1:0.14285714 2:1 3:1 12:3 14:2 17:1 
-1 1 12:2 14:5 16:2 17:4 
-1 0 8:2 12:5 14:4 16:2 17:2 
-1 1 12:4 14:6 16:1 
-1 1 12:2 14:2 16:3 17:1 
-1 1 12:4 14:4 17:3 
-1 1 8:1 12:4 14:8 16:1 17:1 
-1 1 14:5 16:2 
-1 1 1:0.058823529 2:1 12:3 14:7 16:4 17:3 
-1 1 12:4 14:4 16:1 
-1 1 3:1 8:1 12:2 14:1 17:1 
-1 1 12:5 14:2 16:1 17:2 
-1 1 8:1 12:2 14:4 16:2 17:7 
-1 1 8:2 12:2 14:6 16:2 17:5 
-1 1 3:1 12:2 14:4 16:2 
-1 1 8:1 12:5 14:4 17:6 
-1 1 5:1 12:2 14:5 16:1 
-1 1 12:4 14:3 16:2 
-1 1 12:3 16:1 
-1 1 12:2 14:1 
-1 1 8:1 12:5 14:4 17:1 
-1 1 1:0.125 2:1 9:1 12:3 14:5 16:2 17:3 
-1 1 8:1 12:3 14:2 16:1 17:1 
-1 1 3:1 12:2 14:5 16:1 
-1 1 8:1 10:1 12:2 14:6 16:1 
-1 1 3:3 8:1 12:1 14:4 16:1 17:1 
-1 1 8:1 12:3 14:4 16:3 17:2 
-1 1 8:1 9:1 12:4 14:4 17:1 
-1 1 12:6 14:8 
-1 1 1:0.11111111 2:1 8:1 12:3 14:3 17:2 
-1 1 8:1 12:5 14:2 17:1 
-1 1 12:1 14:3 16:1 17:2 
-1 1 9:1 12:3 14:7 16:1 17:3 
-1 1 12:2 14:3 16:1 17:1 
-1 1 12:1 14:4 
-1 1 1:0.090909091 2:1 3:1 14:7 16:2 17:1 
-1 1 1:0.0625 2:1 8:1 10:1 12:2 14:5 16:2 17:5 
-1 1 1:0.30769231 2:1 8:1 12:4 14:2 16:3 17:2 
-1 1 9:1 12:4 14:7 17:1 
-1 1 12:3 14:4 16:1 
-1 1 8:1 12:5 14:5 16:1 17:1 
-1 1 5:1 12:6 14:3 17:1 
-1 1 8:1 12:3 14:4 16:2 17:2 
-1 1 12:1 
-1 1 12:1 14:2 16:2 17:1 
-1 0 8:2 12:4 14:3 16:1 17:2 
-1 1 8:1 12:2 14:5 16:1 17:2 
-1 1 12:2 17:1 
-1 1 12:3 14:7 16:1 17:7 
-1 1 12:4 14:5 17:4 
-1 1 12:2 14:4 16:3 17:5 
-1 1 3:2 8:1 12:1 14:2 16:1 17:1 
-1 1 14:8 16:1 17:3 
-1 1 12:4 14:2 17:2 
-1 1 8:1 12:6 14:3 16:2 17:2 
-1 1 10:1 12:5 14:2 16:4 17:3 
-1 1 8:2 9:1 12:2 14:5 16:2 
-1 1 12:1 14:7 16:1 
-1 1 10:1 12:5 14:4 16:1 17:1 
-1 1 8:1 12:1 14:3 17:2 
-1 1 3:1 12:2 14:3 16:1 17:1 
-1 1 8:1 12:2 14:4 16:1 17:1 
-1 1 3:1 12:3 14:2 16:1 17:1 
-1 1 8:1 12:2 14:1 17:2 
-1 1 12:5 14:5 16:4 17:1 
-1 1 8:1 12:1 14:7 16:4 17:11 
-1 1 12:3 14:3 16:1 17:1 
-1 1 8:1 12:4 14:3 16:1 17:3 
-1 1 12:2 14:3 16:1 17:3 
-1 1 8:1 12:5 14:3 16:1 17:1 
-1 1 10:1 12:1 14:1 
-1 1 12:1 14:1 16:1 17:1 
-1 0 3:1 8:2 12:3 14:4 16:1 17:4 
-1 1 12:2 14:3 16:1 
-1 1 3:1 8:1 12:6 14:4 16:2 17:1 
-1 1 3:1 12:2 14:4 16:4 17:3 
-1 1 1:0.066666667 2:1 8:1 12:3 14:6 16:2 17:4 
-1 1 1:0.22222222 2:1 3:2 12:4 14:2 17:1 
-1 1 8:1 12:2 14:6 16:1 17:4 
-1 1 8:1 10:3 12:3 14:2 16:1 17:1 
-1 1 8:1 12:2 14:3 16:2 17:3 
-1 1 3:1 12:2 14:2 17:1 
-1 1 1:0.083333333 2:1 3:1 12:3 14:5 17:3 
-1 1 1:0.4 2:1 12:3 14:4 16:2 17:1 
-1 1 3:1 12:1 14:4 17:4 
-1 1 12:1 14:4 17:4 
-1 1 1:0.083333333 2:1 8:1 12:2 14:7 17:3 
-1 1 12:3 14:1 16:3 
-1 1 8:2 10:1 12:2 14:3 17:2 
-1 1 8:1 12:1 14:4 16:1 17:2 
-1 1 12:5 14:4 16:1 17:4 
-1 1 12:4 14:4 
-1 1 8:1 12:4 14:4 16:1 17:1 
-1 1 12:1 14:2 16:1 
-1 1 3:1 8:1 11:2 12:2 14:8 
-1 1 1:0.083333333 2:1 8:1 12:3 14:5 16:1 17:1 
-1 1 9:1 12:4 14:2 16:1 17:1 
-1 1 8:1 12:2 14:4 17:1 
-1 1 3:1 8:1 12:3 14:2 17:2 
-1 1 3:1 8:1 12:2 14:4 17:4 
-1 1 8:1 12:5 14:4 17:1 
-1 1 12:2 14:3 16:1 
-1 1 8:1 9:1 12:3 14:8 16:1 17:1 
-1 1 10:2 12:2 14:5 16:1 
-1 1 8:1 12:1 14:6 17:7 
-1 1 1:0.11111111 2:1 5:1 12:1 14:2 16:2 17:2 
-1 1 8:1 12:3 14:3 16:1 17:8 
-1 1 12:4 14:1 16:1 17:1 
-1 1 12:1 14:5 16:2 17:3 
-1 1 1:0.055555556 2:1 8:2 12:6 14:7 17:4 
-1 1 3:2 8:1 12:1 14:3 17:4 
-1 1 3:1 12:3 14:6 16:2 17:2 
-1 1 9:1 12:1 14:3 16:2 
-1 1 11:2 12:4 14:3 17:1 
-1 1 12:1 
-1 1 8:2 12:1 14:7 17:5 
-1 1 8:1 12:3 14:5 16:2 17:2 
-1 1 8:2 12:3 14:5 17:3 
-1 1 4:1 12:1 14:5 16:3 17:3 
-1 1 12:3 14:2 16:1 
-1 1 9:1 12:2 14:5 16:3 
-1 1 12:2 14:5 16:1 
-1 1 12:5 14:3 16:1 17:1 
-1 1 8:1 12:4 14:3 16:1 17:2 
-1 1 12:5 14:2 16:1 
-1 1 8:1 12:6 14:3 17:4 
-1 1 6:1 8:1 12:1 14:3 16:2 17:2 
-1 1 8:1 12:4 14:8 16:1 17:4 
-0.1602781194777709 0 8:2 12:5 14:3 17:2 
-1 1 12:4 14:2 16:1 17:3 
-1 1 12:2 14:3 16:1 
-1 1 8:1 12:5 14:4 17:5 
-1 1 3:1 14:5 16:1 17:1 
-1 1 14:4 16:2 17:1 
-1 1 12:5 14:5 16:2 17:1 
-1 1 1:0.14285714 2:1 12:5 14:4 16:1 17:3 
-1 1 8:1 12:6 14:5 16:2 17:2 
-1 1 8:1 12:3 14:1 16:1 17:1 
-1 1 3:1 8:1 12:4 14:3 16:1 17:5 
-1 1 12:3 14:6 17:3 
-1 1 12:5 14:4 16:1 17:4 
-1 1 12:1 14:4 17:4 
-1 1 12:2 14:5 16:2 
-1 1 3:1 12:5 14:1 16:3 17:6 
-1 1 10:2 12:3 14:5 17:1 
-1 1 3:1 12:3 14:3 16:2 17:1 
-1 1 5:1 9:1 12:2 17:1 
-1 1 1:0.11111111 2:1 3:1 12:2 14:6 
-1 1 12:4 14:2 16:1 17:4 
-1 1 8:1 9:1 12:4 14:8 16:2 17:4 
-1 1 8:2 12:1 14:2 16:1 17:2 
-1 1 3:1 8:1 14:3 16:3 17:5 
-1 1 9:1 12:2 14:2 16:2 17:4 
-1 1 5:1 12:2 14:4 
-1 1 4:1 8:1 12:4 14:2 17:6 
-1 1 12:5 14:2 
-1 1 12:2 14:2 16:1 
-1 1 8:2 10:1 12:5 14:9 16:2 17:8 
-1 1 3:1 12:4 14:6 16:1 17:1 
-1 1 12:4 14:3 
-1 1 3:1 8:1 12:2 14:5 17:2 
-1 1 1:0.11111111 2:1 3:1 8:1 12:5 14:1 16:1 17:1 
-1 0 8:2 12:3 14:7 16:3 17:1 
-1 1 8:1 12:5 14:1 17:5 
-1 1 3:1 12:1 14:1 16:1 17:2 
-1 1 12:6 14:5 17:5 
-1 1 12:1 16:1 17:1 
-1 1 10:1 12:3 14:5 17:1 
-1 1 3:1 8:1 12:4 14:3 17:2 
-1 1 1:0.1 2:1 3:1 12:3 14:3 16:1 
-1 1 8:1 12:6 14:4 17:1 
-1 1 8:1 12:4 14:2 17:1 
-1 1 5:1 12:4 14:4 17:4 
-1 1 8:1 12:5 14:2 17:1 
-1 1 3:1 12:3 14:6 16:1 17:1 
-1 1 3:1 12:5 14:2 
-1 1 12:4 14:5 
-1 1 8:1 12:2 14:3 16:2 17:1 
-1 1 8:1 12:7 14:3 17:3 
-1 0 8:2 12:4 14:2 16:1 17:2 
-1 1 3:1 8:1 12:3 16:3 17:2 
-1 1 12:1 14:6 17:1 
-1 1 8:1 12:1 14:6 16:1 17:1 
-1 1 8:1 10:1 12:5 14:2 16:1 17:2 
-1 1 8:1 12:4 14:1 16:1 17:2 
-1 1 8:1 12:7 16:1 17:2 
-1 0 8:2 12:4 14:1 17:2 
-1 1 12:3 14:2 16:1 17:3 
-1 1 8:1 12:6 14:1 17:2 
-1 1 8:1 14:4 16:1 17:2 
-1 1 12:4 13:1 14:6 16:1 
-1 1 3:1 12:4 14:6 16:1 17:3 
-1 1 1:0.090909091 2:1 12:6 14:4 
-1 1 12:1 14:4 17:1 
-1 1 3:2 8:1 12:2 14:6 16:1 17:2 
-1 1 3:1 12:4 14:4 16:1 17:1 
-1 1 8:1 12:5 14:4 16:2 17:1 
-1 1 5:1 12:2 14:5 16:1 
-1 1 3:1 8:1 12:2 16:2 17:2 
-1 1 3:1 12:2 14:6 16:2 
-1 1 1:0.090909091 2:1 12:2 14:3 16:2 17:4 
-1 1 3:2 8:1 12:5 14:1 17:1 
-1 1 12:1 14:6 16:1 17:3 
-1 1 8:1 12:4 14:2 17:3 
-1 1 8:1 12:3 14:5 17:4 
-1 1 1:0.125 2:1 12:4 14:3 
-1 1 5:1 8:1 14:5 17:1 
-1 1 8:1 10:2 12:5 14:5 16:2 17:2 
-1 1 10:1 12:2 14:8 16:1 17:2 
-1 1 12:2 14:4 16:3 17:3 
-1 1 12:6 14:3 16:2 
-1 1 3:2 12:1 14:2 16:1 17:2 
-1 1 8:1 12:1 14:2 17:1 
-1 1 8:1 12:2 14:2 17:2 
-1 1 8:1 9:1 12:4 14:1 17:1 
-1 1 10:1 12:1 14:6 16:4 17:1 
-1 1 12:4 14:7 16:2 17:6 
-1 1 8:1 10:1 12:5 14:7 16:1 17:2 
-1 1 8:1 12:4 14:3 17:2 
-1 1 8:1 14:2 16:2 17:1 
-1 1 3:1 8:1 12:3 14:2 16:2 17:6 
-1 1 10:1 12:2 14:5 17:3 
-1 1 8:1 12:2 14:1 17:1 
-1 1 5:1 12:2 14:3 
-1 1 12:3 14:4 16:2 17:4 
-1 1 12:1 14:4 17:4 
-1 1 12:3 14:5 16:1 17:4 
-1 1 3:1 8:1 12:1 14:7 16:2 17:1 
-1 1 3:2 12:3 14:3 16:2 17:1 
-1 1 12:4 14:1 16:2 17:4 
-1 0 8:2 12:3 14:5 16:3 17:3 
-1 1 8:1 9:1 12:3 14:7 16:3 17:1 
-1 1 5:1 8:1 14:5 17:1 
-1 1 1:0.16666667 2:1 10:1 14:3 16:2 
-1 1 12:2 14:3 16:1 17:3 
-1 1 8:1 12:6 14:2 17:4 
-1 1 8:2 12:1 14:1 17:4 
-1 1 9:1 10:2 12:3 14:2 16:1 17:1 
-1 1 3:1 12:1 14:4 16:1 17:1 
-1 1 1:0.125 2:1 12:1 14:5 16:1 
-1 1 12:2 14:2 16:1 17:4 
-1 1 12:4 14:6 16:1 17:3 
-1 1 4:1 5:1 10:1 12:3 14:4 16:2 17:6 
-1 1 1:0.2 2:1 3:1 12:2 16:1 17:3 
-1 1 12:2 14:6 16:2 17:1 
-1 1 12:4 16:1 17:1 
-1 1 7:1 8:1 12:4 14:5 16:3 17:5 
-1 1 12:5 14:3 16:1 17:2 
-1 1 1:0.090909091 2:1 14:5 16:3 17:3 
-1 1 12:3 14:5 16:1 
-1 1 8:1 12:3 14:1 17:1 
-1 1 8:1 12:3 14:5 16:2 17:2 
-1 1 9:2 10:1 12:3 14:5 17:1 
-1 1 1:0.071428571 2:1 8:1 12:7 14:3 16:1 17:2 
-1 1 12:5 14:3 16:1 
-1 1 12:4 14:5 16:3 
-1 1 12:4 14:2 16:1 17:1 
-1 1 12:4 14:3 16:1 17:3 
-1 1 8:1 10:1 12:5 14:7 
-1 1 1:0.1 2:1 12:4 14:2 16:1 17:1 
-1 1 8:1 12:2 14:6 16:3 17:1 
-1 1 14:1 16:1 17:1 
-1 1 8:1 10:1 12:2 14:1 17:2 
-1 1 8:2 9:1 12:1 14:1 17:2 
-1 1 8:1 9:1 10:1 12:4 14:6 16:1 17:2 
-1 1 9:1 12:3 14:3 17:2 
-1 1 1:0.052631579 2:1 3:1 12:4 14:9 16:2 17:3 
-1 1 12:4 14:2 16:1 
-1 1 1:0.071428571 2:1 3:1 12:2 14:4 16:3 17:3 
-1 1 8:1 12:2 14:2 16:2 17:1 
-1 1 1:0.090909091 2:1 8:1 12:3 14:2 16:2 17:3 
-1 1 8:1 12:2 14:5 16:1 17:1 
-1 1 8:1 12:2 14:3 16:2 17:2 
-1 1 1:0.083333333 2:1 8:1 12:6 14:3 17:2 
-1 1 1:0.15384615 2:1 8:1 10:1 12:2 14:4 16:1 17:3 
-1 1 8:1 12:3 14:7 
-1 1 1:0.041666667 2:1 12:6 14:7 16:3 17:4 
-1 1 12:1 14:4 
-1 1 12:3 14:6 16:2 17:2 
-1 1 12:2 14:4 16:1 
-1 1 1:0.090909091 2:1 12:1 14:4 17:5 
-1 1 1:0.25 2:1 10:3 12:3 14:2 17:1 
-1 1 8:1 12:2 14:4 16:2 17:1 
-1 1 9:3 14:4 16:1 17:4 
-1 1 1:0.076923077 2:1 3:1 12:6 14:4 17:2 
-1 1 12:3 14:7 16:2 17:3 
-1 0.3536645887610254 1:0.1 2:1 8:2 12:4 14:1 17:2 
-1 1 8:1 11:2 12:5 14:2 16:2 17:1 
-1 1 12:1 17:2 
-1 1 1:0.083333333 2:1 12:4 14:3 16:1 17:3 
-1 1 1:0.071428571 2:1 3:1 8:1 12:2 14:4 17:3 
-1 1 9:1 12:1 14:7 16:1 17:1 
-1 1 9:1 10:3 12:1 14:6 
-0 1 5:1 8:1 12:3 14:1 17:1 
-1 1 14:4 16:2 
